{"acups": ["ekmoon", "gwanchung", "hapgok", "hugye", "jungjer", "nogung", "sangyang", "sochung", "sotack", "taeyeon", "urjae"], "meta": {"ekmoon": {"name_kr": "\uc561\ubb38", "code": "TE2"}, "gwanchung": {"name_kr": "\uad00\ucda9", "code": "TE1"}, "hapgok": {"name_kr": "\ud569\uace1", "code": "LI4"}, "hugye": {"name_kr": "\ud6c4\uacc4", "code": "SI3"}, "jungjer": {"name_kr": "\uc911\uc800", "code": "TE3"}, "nogung": {"name_kr": "\ub178\uad81", "code": "PC8"}, "sangyang": {"name_kr": "\uc0c1\uc591", "code": "LI1"}, "sochung": {"name_kr": "\uc18c\ucda9", "code": "HT9"}, "sotack": {"name_kr": "\uc18c\ud0dd", "code": "SI1"}, "taeyeon": {"name_kr": "\ud0dc\uc5f0", "code": "LU9"}, "urjae": {"name_kr": "\uc5b4\uc81c", "code": "LU10"}}, "scaler": {"mean": [0.0, 0.0, 0.22980430017964923, -0.40523599415814654, 0.583486707882076, -0.6109250961960331, 0.9453148158114535, -0.68474202643235, 1.2022688718138304, -0.7820381176643257, 1.0035430110294972, -0.27840579950055755, 1.5128136161522323, -0.2665313599163571, 1.8110385956398574, -0.240499978818962, 2.0444546010605795, -0.20661777770438497, 1.0, -6.137212511564954e-20, 1.559867276594842, 0.04560686871424536, 1.9000340568198641, 0.08345875929105376, 2.153702044143446, 0.11794876707041319, 0.9187915686712819, 0.23922391623493244, 1.4320537741074344, 0.30578938139207446, 1.7493612154146638, 0.34791881089151344, 1.9925219261378426, 0.37540915275179926, 0.7831807856181514, 0.4436513551410919, 1.1719695461980264, 0.5429945713071518, 1.4072525432263214, 0.5957128316444834, 1.6104987709998675, 0.6290423767688204, 0.10215363655418151, 0.10029343953049676, 0.10165583735066024, 0.1013676378117795, 0.1011318381890589, 0.11048522322364285, 0.10210123663802138, 0.0946080486271222, 0.0905470551247118, 0.024706560469503248, 0.07094948648082162], "scale": [1.0, 1.0, 0.044705268880322765, 0.051359193163447316, 0.07800574026384427, 0.07856329473752598, 0.11478455952098988, 0.13835584567370598, 0.15306858286263428, 0.21374142048725867, 0.02783620427622079, 0.03858753547565553, 0.09526515100613579, 0.08788257731011172, 0.14210836858796558, 0.13327917936780911, 0.1735878094546685, 0.17067764094769344, 1.0, 2.026723461642236e-17, 0.08833956317429767, 0.06888156427669821, 0.1456488051265551, 0.11091157424662279, 0.18253672162922857, 0.1433509344977765, 0.02234058770544778, 0.033575829281598885, 0.080904716452161, 0.07553276710287898, 0.13449316106912154, 0.1145903577730617, 0.17010293656658432, 0.14860644294753764, 0.04304760395877969, 0.05572730185267434, 0.08393418195046923, 0.0934155163426912, 0.11865119818075724, 0.13698736004747383, 0.1453702079491378, 0.17559077561244396, 0.3028502453241149, 0.3003908545839663, 0.30219518209795265, 0.30181490986391885, 0.3015032163900596, 0.313493602283712, 0.30278139658003816, 0.2926727964161845, 0.28696391050618514, 0.15522933466095742, 0.2567404464608589]}, "layers": [{"W": [[-1.1771639296304649e-153, 8.127651676013516e-142, 2.262178320336352e-150, -6.655760367244436e-154, -5.552215608151853e-152, 1.5301419239215286e-146, 6.299456968941082e-153, -2.035401564860013e-125, -2.2010269851019578e-120, 2.334444759855165e-149, -5.13019688172442e-134, -2.6960338332617166e-155, 2.3919601837288685e-153, -1.4686633125494577e-122, 3.19668338749306e-122, -1.959726103594318e-124, -5.75963384748628e-118, 9.496152882924846e-131, -3.97400696141451e-136, -1.522154935476642e-127, 4.550431830929749e-118, 2.7394582450115975e-134, -5.62436085747941e-155, -3.0216132742142404e-135, -1.9457360936989143e-126, -1.115174721227686e-148, -3.085241853231453e-128, 9.657073807035789e-121, 1.7668779691077736e-155, -1.8377204984152155e-151, -1.1942013936847757e-139, 3.1655152053440973e-136, 4.586127256549326e-154, 5.372096007819717e-153, -7.3468809454644295e-118, -3.291006346679488e-149, 2.3852020944493937e-149, -2.73288748697175e-149, 7.533802482063905e-121, 1.0937976312737705e-143, -6.648500749718467e-148, 7.274083888052538e-153, -1.4551607183254778e-143, -1.7530293909108757e-121, 7.722008140674535e-145, 4.024395481417225e-145, 4.379426799869029e-134, 1.6675766106417359e-127, -2.9176960884544964e-143, 1.3731967413387635e-147, 2.2855902979842435e-152, 4.3249056800378533e-153, 4.438364615822701e-118, 1.2957296289268925e-124, 5.001183519722377e-134, 8.633248919575285e-131, -1.9702007475517823e-146, -3.1830459479341826e-138, 2.943405376076912e-155, -8.660286021943234e-138, 6.601114260053102e-131, 6.441534825675099e-126, -5.386722948292975e-146, -2.517691781226796e-128, 3.947004395733036e-134, -3.4692392422238635e-148, 6.593097236142359e-132, 2.728277250167376e-124, -6.207516128161094e-131, 2.935947678042713e-124, 2.692432962403286e-118, 4.567856756740459e-155, 2.9177387797459196e-118, 8.336052024035318e-150, -3.7068669019493155e-139, -1.1109524094126496e-120, 7.381346091789206e-142, -1.2034030272398299e-126, -1.2863892882318751e-141, -1.772594274938745e-126, -1.1998425479815382e-143, -2.3910177558426132e-151, 1.8904271658830022e-122, 1.8428583294027487e-143, -5.454390709380728e-153, -1.8923967274811334e-139, 1.8285914868268126e-155, 3.0412027574271766e-124, 5.909602023279797e-152, -3.3829671398387463e-122, -8.974072660741552e-144, 8.032057552271493e-145, 1.06453388399363e-127, -2.8105056035123467e-142, -3.892028641464198e-141, 4.3170295527127514e-132, 3.6623475501362254e-151, -5.880318167862439e-118, 8.722468436289703e-131, 1.074904358730495e-116, -9.343749228798872e-145, -2.4831614827121745e-139, 1.4257681655658641e-139, -5.366783258554175e-121, -1.2465365752358395e-137, 5.734590254081987e-152, 1.4407257938917998e-150, 4.6762305418833785e-152, -1.4109409054839109e-136, 3.7555975965869555e-120, 5.544166561335693e-155, 2.1965931226249794e-129, 1.1984644969884062e-142, -7.933447161045116e-142, -4.2247555305825033e-132, -3.975220001025324e-150, 1.7066917620974238e-126, -3.0243153047419734e-152, 1.9493919185234923e-126, 1.738990984919822e-143, 8.740837966851694e-140, -9.16629208696927e-159, 4.1418495495298765e-120, 9.455406717955809e-147, -5.7457374104806e-152, 1.4854489705420668e-149, -6.895685471825681e-118, -2.5022033130704117e-143], [4.860201046965095e-146, -3.867977752789021e-141, -3.4539194246713855e-149, -3.5010256380187025e-152, 1.1819467767971474e-128, -5.40501190140677e-142, 2.025182846188648e-152, 1.2966704386544542e-150, 6.245514340679898e-152, -2.095905347457491e-146, -6.796666144361404e-147, -6.595025668934008e-153, -9.4234081624794e-125, -3.3397531896698265e-149, 8.663665523428835e-153, -2.1692700578237517e-125, -4.519146286932486e-133, 1.2986966762408277e-141, 1.8234352063020442e-124, -7.39591301817068e-124, 1.818498438876796e-141, -2.7745497053077595e-116, -9.555739520664506e-129, -1.042784941471828e-127, 4.540514242347461e-131, -1.0977578911696667e-149, -1.8059253725401618e-127, 4.2240722482408956e-129, -7.722038633401708e-133, 1.1282315365091063e-152, -1.4610496026878595e-150, 4.1718645483604517e-122, -2.1106492840502937e-143, 9.715715220573253e-154, 2.1649180650277803e-140, -5.510425213748388e-128, 2.064333782636642e-118, 2.795733131563129e-128, -4.797845757177003e-118, -1.15168602264547e-149, 2.4827526238388323e-139, -8.105845796578775e-131, 1.5831826555800768e-155, -1.2314245282056413e-120, -3.8179975528618506e-134, -7.644132780773888e-118, -4.819586307272019e-134, -3.0306225548258404e-136, 4.030002133257797e-146, -2.7015245311684833e-122, 1.5328466306333555e-141, -3.9202215439708514e-120, -3.8145314260162606e-131, 3.6570238472722026e-149, 4.371368732063581e-152, 1.177459247667869e-136, -4.129188659805543e-122, 8.663930242093122e-150, 1.2015422417456246e-155, 1.1085592249795281e-150, 2.5186594830323817e-139, -5.022618492377221e-143, -6.611247668256693e-151, 4.640950623779593e-134, 4.2291737801270626e-132, 8.937739357974805e-121, -4.0305198710679475e-139, -1.2000418619719354e-157, -1.5107841352942171e-136, -1.7478615816071354e-138, -4.3221357094735615e-121, 8.115977558606788e-153, -5.056775861461956e-143, -3.733902252539795e-143, -8.180486269842215e-149, -3.76461153942525e-132, -1.944220934783748e-118, 4.6437599542083506e-122, 1.67122989606709e-144, 9.446091849582226e-154, 3.4573245669123933e-155, -9.712071099618156e-125, -8.253306417949174e-118, 9.552026524878163e-135, 3.3486878113100496e-145, 1.9782599390928373e-140, -5.296608720390791e-118, -2.2438772524118623e-137, -3.2850061612861753e-144, 2.309093999655814e-149, 7.435053811511734e-151, 1.0081326110455002e-130, 6.041011220434468e-148, -1.5284766543854786e-127, -1.2552972067829754e-139, 8.239160866194164e-135, 4.4678297545654146e-132, 3.768256050439623e-120, 4.829335560142685e-143, 1.510980609849227e-134, 1.774407728967333e-120, 2.6844250021755147e-139, -2.2575957848904544e-138, 2.6658545616865914e-134, 6.609315211005601e-156, -1.4221261557745192e-118, 5.154830197231547e-134, -6.247279606031155e-152, -4.1761496630226745e-148, -3.10894708368196e-155, -2.582060317661152e-140, 4.16453664121937e-151, 2.950335987276532e-130, -2.2064198815184648e-126, 4.2551672776173877e-156, 9.870298457533103e-128, -6.217486229242555e-142, -5.247372812394335e-150, -8.34692001629342e-153, 4.372735956511791e-132, -2.552065423292146e-128, 6.150780920227922e-157, -1.0737019023368081e-146, 2.3803447362450745e-121, -2.118055841233968e-136, 6.835539047751874e-138, -2.9038900525661407e-124, -3.6576655412365858e-124], [0.038128336340099295, -0.018259990012641995, 0.1293705479107434, -0.053397264341946166, -0.007305691394011789, -0.176929099393486, -0.16955737020228132, 0.056290965516419725, 0.05610756861134013, 0.060772367326956095, -0.013239118895474035, 0.026760690036001938, -0.1172912521137017, -0.019921775575874382, 0.09047195091401772, 0.07275924222486782, -0.020788675963391817, 0.1605240974756931, -0.05595990247525687, 0.1424334242051739, 0.13455828524235572, 0.13908196633222752, 0.07628902525471583, 0.08790605107518037, 0.0893750052559272, 0.029851952157778163, 0.02653979785321926, -0.09365810214432077, 0.04702908491897989, -0.03214216732899511, 0.12468875842282505, -0.020913980844565777, 0.07113777755440957, 0.05500091161253366, -0.03857955779273447, -0.08929554600242771, 0.08096771089135676, -0.11473081290063941, -0.03380374111583582, -0.06047868654665343, -0.10290513979337115, 0.08113423911513697, 0.15190366857808588, 0.07467213083394968, 0.15767040981381142, 0.12379664532932566, -0.06318706573915228, -0.051121199113474326, -0.07270673948961219, -0.03828302487784024, -0.08739366122041005, -0.14459595473070336, 0.07794833325468159, -0.1777626034334835, 0.060164825355987224, -0.14933816847411602, -0.13227537764654504, -0.17357069249140405, 0.03079769937104357, 0.0005341739897443301, 0.07598124618484646, 0.019669591750956505, 0.061437670970407594, -0.02303645562344698, -0.07835448348554203, -0.11094200517773832, -0.07647545199763005, -0.07626780561850054, -0.04004163216467868, -0.040822332489421256, 0.14808129653154053, 0.06660968014782787, -0.08789245901429088, -0.024687987317841466, 0.002897673176531407, 0.13462655151263275, -0.015175688911891349, 0.02545546768460662, -0.0032310806190622046, -0.0033989806934800995, -0.04119009643883519, -0.046477009690534817, 0.045190489838404166, -0.11130352635818168, 0.027294724380551843, -0.11674431228839101, -0.06497339942337381, -0.17741189924226278, 0.011897336433500544, -0.11289139698857927, 0.022498883072641012, -0.0769395504930131, 0.01689311087444904, 0.15771348661094794, 0.042333322373486054, -0.12692978158505486, -0.034911530001573175, -0.02070431675519188, 0.025022404132464666, 0.05095045039757076, -0.06771547171663582, -0.030309723563156452, 0.03122189713573742, 0.12815318510969556, -0.020382680611812896, 0.05309166107255674, 0.04640721147096032, 0.04244358665843948, 0.14978496631920724, -0.043043520058816044, 0.04392880547060201, -0.06559899972225378, 0.04120350647695551, -0.022516251519950736, 0.01447187483232938, -0.04329910615222129, 0.05960685876552155, 0.08398961922461316, -0.061305790417335755, -0.12326360375977553, 0.15807503457961372, 0.170609479067195, -0.050947341629928276, -0.041439504881219474, 0.06746721353981751, -0.09956911085441549, 0.022437920200988632, 0.014615157491536468], [0.11312556887056248, 0.11530184804631627, 0.050364546341579434, -0.15864214099224203, 0.06868537710550149, 0.0206390312875025, -0.10934332018114516, -0.11620655301397348, -0.08957999738580234, 0.1295426455056362, -0.07103981548013041, 0.18064659040582723, -0.040593629362589576, -0.013592403223928866, -0.1522174516968326, -0.09291872881593301, -0.07150893117565825, 0.12621916455734544, -0.13537563254322554, 0.07305437607924782, 0.139325178874823, -0.07084625333036816, 0.009743382262139878, -0.09301204952466387, 0.03245415226604763, -0.13134621745742167, -0.11086128575189047, 0.0020244595115976633, -0.10351669021750219, -0.11392008049007366, -0.06024480669091353, -0.059737904343673646, -0.13163293470067158, -0.11052518767864784, -0.12045706553438486, 0.03340182044042368, 0.11484793432986538, 0.1671077526285177, -0.07870906384114124, -0.11461378227955651, 0.07759264864451454, -0.004280485529616524, 0.15193281756401325, -0.12939123905316768, 0.07163380757107417, -0.1152991033262312, -0.09885284426034835, 0.03360654901391882, -0.1428583386513959, 0.09423675698012483, -0.007420719736141145, -0.02722895797791536, 0.014591700913944343, -0.0725963042386619, 0.0951647060323304, 0.002471165463697802, -0.06735343802262418, 0.10110724774970392, 0.15067364103654918, -0.14095868872586267, -0.16715277980782833, -0.0033293154714374817, 0.13689880483511022, 0.20186750878666354, 0.22047838242537987, 0.14718487965236798, -0.03575869914654305, 0.18268293666802435, -0.01771904519176079, -0.03892405996131543, 0.10122596262810525, -0.08323560483643401, 0.04408975216578772, -0.10970163665056264, 0.07717816463561662, 0.11538849893535255, -0.11387809304507464, -0.08546680939571048, 0.03859642874782446, 0.04659232542127115, -0.07300949230016748, -0.03062121964687731, 0.037252670952560206, -0.06938023193132425, 0.10795533708441485, -0.047022665485085824, -0.04490061635732829, 0.12841401091141544, -0.009288311460553207, 0.10761753682118298, 0.14569947401667163, 0.091990145403721, 0.10857327600455403, 0.14161398184417778, 0.1390009784709364, -0.10204350542045056, -0.09502191837298139, -0.05765735436864331, -0.08383569697407002, -0.031922975591559086, -0.08599543283116845, -0.00177651729812851, -0.0537291183435894, 0.12204556888902786, 0.12230544345301388, 0.033458772937676344, -0.10423256261598597, 0.03571904573367738, 0.0968257308437568, -0.058224934577046396, 0.06480891839198454, -0.10164944488731092, 0.015038712659747502, -0.043261894913911504, -0.05384443176779701, -0.011187597271445459, -0.02017966001046871, 0.013745406156150376, -0.027596679713243148, 0.03811200854202053, -0.0019608997494518663, 0.13274232197880975, 0.11416725854507127, -0.10957202288749424, -0.0696883103435596, 0.024904557970163676, -0.17043722953631596, -0.12089391067718247], [0.04002839245360594, 0.030971441923528898, 0.005457346565039806, 0.13418192672836102, -0.07638563895841298, -0.07263126598888942, 0.07004454916911905, 0.10078915827138986, 0.060861385088647926, -0.07847856444146097, -0.11266745676385183, 0.05481861052830964, -0.07888526830560477, 0.04895879093859771, -0.008537891241503578, 0.12700835591135298, -0.1086574854133997, -0.058903572516941526, -0.10681294682432455, -0.06260045053275227, 0.023732252654406576, -0.07779760318621552, -0.08980415867922202, -0.16093199954796045, -0.03969956253421642, 0.01961883118300095, 0.0496187467787924, 0.1858646808492065, -0.12621379327933516, 0.03353227435959649, 0.013006640761471294, -0.0016703624840141713, 0.08986515338671591, -0.16057405366358596, 0.05735912703647851, 0.07575399676368126, -0.02698951025546753, -0.05592449073233266, 0.12242871766777012, -0.15158546719176996, -0.05624823631441268, 0.016632833264827517, 0.08758613079204032, -0.194492484179089, -0.10249103012990465, -0.05402438015445664, 0.06363050372469345, 0.08237928241163592, -0.015411432474324596, -0.07714614623769749, 0.09924123553758686, 0.19062769180683442, -0.03594767567556402, 0.16281958455108309, -0.0014602049435800796, 0.19556541096143576, 0.13749436926240685, 0.1817571856355578, 0.12910123671288692, -0.15643794120830423, -0.0785315277444556, 0.013803574375246723, 0.1324862183560973, -0.0464885671932181, -0.1387752472557244, 0.12863974108972262, -0.03174011643788941, 0.09821233197940156, -0.09970463059713547, 0.04606721504228189, 0.008076633533291067, -0.1609419017416903, 0.12228210181901039, -0.07105641620335126, -0.12052262779830449, -0.13896603818286116, -0.166606140937185, 0.10582251386870607, 0.041696489569709456, 0.08184220866050404, 0.06859130388141699, 0.04130765431124723, -0.08534353118602743, 0.23722729216595517, -0.03122171772066618, -0.007743352406730258, -0.09008127377229065, 0.09059530228508259, -0.10821979696737488, -0.007036804084458342, 0.11279548280833772, -0.07901660568947112, -0.018087495395046282, 0.03891356125406981, -0.008702087315002988, -0.05440120136607441, 0.02718839803446679, -0.0919588008928388, -0.0037165428198926193, 0.006335280990021007, 0.14712548475762474, -0.07679970010716147, -0.15471974129936034, -0.04724899128654923, 0.1100831134774842, 0.028163742140445615, 0.05304839304676679, 0.1823797732217893, -0.05458625542795583, 0.045045697951993535, 0.03736526703827225, 0.10538850186044688, 0.110652835517508, 0.1370479177779654, 0.04984063215789131, 0.07040894481796436, -0.07165559398684752, -0.10465555750782116, -0.11561507470953032, -0.11994981341885891, 0.0057702231770453815, 0.025700553436146644, 0.058146169054370485, 0.13047950083825652, -0.15060756378458345, -0.16196276513713462, -0.004235116661070363, 0.13577613480317618], [0.15409842369110344, 0.11913122617486425, 0.15976269454930409, -0.027320349857191256, -0.04243738309779468, -0.12183922711014539, 0.11040304031393124, 0.0470518315653455, 0.05741955825158034, -0.049103364054437486, 0.10230027655200531, 0.07535081226804348, -0.0015685264054441659, -0.13112362912890368, 0.14808199113347384, -0.16417380404923665, 0.030106501387945572, -0.1212177515190628, -0.012648091545281508, 0.14274297429402943, -0.02088777356349256, 0.0945835334371202, -0.039063987238557384, -0.026563846580242034, -0.07471322961894974, 0.0056286320033159315, 0.05066707779405378, -0.02700573578816354, 0.055761346389063736, 0.07644827467619654, -0.04210633411540841, 0.014658965792836947, 0.11935152548955252, -0.08483982214273268, 0.09363627133122743, 0.03891510585401868, 0.04693596601157722, 0.009654314082448184, -0.16765809201677437, -0.012947474236665188, -0.033509851332075485, -0.07181039007020396, -0.13410940793900852, 0.07495871525395029, -0.09932410633959228, 0.09332331044319012, 0.13541286447764375, 0.06927285354120374, 0.1897626110930102, -0.09616042933844296, 0.06233393345239217, -0.19615472038429121, 0.021081896743589366, -0.07111308608280442, -0.01595514949860774, -0.035694247378760084, -0.13613523330054494, -0.20627626547992195, 0.018931588979555554, 0.13352945349475837, -0.09409924210301371, -0.08228979616797648, -0.1536078903373835, -0.161438570241846, -0.08571886419053744, -0.11745787328394489, -0.02170444643090833, -0.12826948529174131, -0.05876406494381784, 0.1341592329239295, -0.11010245161924365, -0.0106948433012102, 0.05066212875217239, 0.04578298019901781, -0.1034361558712603, -0.13920206383279674, -0.03992264090462774, -0.013947522198142234, -0.01381889551418884, 0.08391771372694448, 0.11813559526398865, 0.18761566006657093, -0.06613629046308747, 0.07577980335723726, -0.06222710655906123, 0.11998849156328999, 0.0157509672905986, 0.09265208360668045, 0.049451755429087564, -0.01538433799706153, -0.07446940335422308, -0.049789252422394355, -0.06485843667943032, -0.11565551881644107, -0.002278076875246757, 0.06658653721605218, -0.0047078796837972964, 0.0012749457795511426, -0.09241048625791493, -0.09339748544187984, -0.08666374690738052, 0.10588692213049458, -0.09007549998200594, -0.09528537162702724, 0.05001706566368163, -0.13272539147629966, 0.12091818976620215, -0.010957839470573934, 0.0858959137225398, -0.009184412113764032, -0.04710718022128393, 0.04498528118073122, 0.07407908941956172, -0.06392728326290137, -0.02478540609529175, 0.13605354256554475, -0.031554675580782905, -0.11655081432713275, -0.04884511170479837, -0.03039846358858018, 0.13890476290089493, -0.029209766076683137, 0.014425429604717694, -0.042177877164188596, 0.12800058132877706, 0.171883486492484, 0.1215346472099807, -0.027956959344933013], [0.10769712268690819, 0.034697073061919353, 0.026656805037701993, -0.06029908403284669, -0.10158358679981175, -0.04441812173454302, 0.1795221759858889, -0.08917875709885456, -0.014534822159921242, 0.0018539291509159928, 0.07490864817589406, 0.10319179270698335, -0.0841292268605339, 0.02361211689672843, 0.1062083653931494, 0.12157121409744702, -0.12514310620546656, -0.13076051755569984, -0.05535770436120304, -0.16641398921218792, -0.017471920528215393, -0.12453616399418987, 0.004441549167740869, -0.06961141512466214, -0.04165603310868533, -0.1607190003178112, 0.13193958799978836, 0.15392643935514452, -0.06474264113186365, -0.1477621541238117, -0.13974248149836824, -0.0012792243928352075, -0.204240379605637, 0.04514325965882138, -0.12085748058802041, -0.037039849972759914, 0.054159660718950495, 0.09639063266567963, 0.15905143477955186, -0.01664399421384953, 0.17438641535742197, 0.08618649624714844, -0.04540256334175232, -0.0011839572000068564, -0.10529115958298219, 0.10370817575747952, -0.12139842821076857, -0.12281217127699902, -0.09074626369379615, -0.005328415079084141, 0.043633546486812655, -0.0038743260248755972, -0.03105719948085858, -0.18026345397575352, -0.030011859400316202, -0.18508271037065044, -0.057841507399348624, 0.12916749790038817, -0.1029745247372718, 0.08596659960208718, 0.11931757440776049, -0.10801809602974052, 0.028068515597463428, -0.05375220228837716, 0.057166757977446185, 0.0009153720869508183, 0.06448025413699777, 0.026702225536936144, 0.12150405774347967, -0.11982413141141068, -0.05362227409766755, 0.08106789935001914, 0.06930522317586166, -0.13201043327589965, -0.11819936692905672, 0.12777236719875806, -0.02324905625287455, 0.08577467165791222, 0.02615620647092588, -0.08198799867431461, -0.08601707812514749, -0.0036412477516146184, 0.10645383562932678, 0.09449582683499229, -0.12317348463675705, 0.0551011807207876, 0.14464255109327093, 0.05494604442159411, -0.05895880730521672, 0.06827739299824374, -0.10630982821160832, -0.0235338200196035, 0.1675350051475048, 0.1413869084962055, -0.027527457037255284, 0.009298965289809847, 0.00939549990045825, 0.11550117282315275, -0.14106019015041102, -0.022543093786186557, 0.07261346631016304, -0.0361497633017069, 0.1140371079367907, -0.10629539273841138, 0.03465432813469297, -0.056280981910744585, -0.003929239274336514, -0.058488016255583954, -0.008095186953953745, -0.0734858622914299, 0.11945437842180869, 0.11247649890599004, 0.03866168336198188, -0.090917115446003, -0.021567283215878245, 0.052669038435749646, 0.12541388869901984, -0.04014624329678908, 0.11631161535776426, 0.1049072493454966, -0.13374448317211185, 0.10195212177195594, -0.048842772433453675, -0.01000711376913589, -0.015374348864530605, 0.002444101932555495, 0.09320547382918072, 0.0024804574378986233], [0.09743567601788725, 0.011679994349871593, -0.0583558586672977, -0.06718000713874893, 0.10358046308406467, -0.0713094222744487, -0.060069331436084616, -0.09651629811931249, 0.01864699981017493, 0.15651327677191568, -0.1316504893408627, -0.09458864957516876, -0.05604683842447021, -0.14771053951112628, 0.1413469651023838, -0.05662450966108132, 0.22009002902309183, -0.14380670469692067, 0.13331416623670442, 0.030098848120754185, 0.044421374542073004, -0.05054813740254757, 0.09539872335554764, -0.014256662460595843, 0.03594258035043943, 0.03714186642967339, -0.09443509048735056, 0.10973350002815993, -0.0040734255800808205, 0.0953995753465959, 0.031204249398752743, -0.12905060691943723, 0.11816892059241953, -0.033655885127287295, 0.105610762449675, -0.13345810308540135, -0.09208831945886203, -0.1478389682030408, 0.007251945343462729, 0.1284918778749859, -0.07800855572133623, -0.1153231464645165, -0.014866473348853666, 0.009460566864949267, -0.08947008066379185, -0.012057064905610777, -0.06338240372943763, 0.10778467430660726, 0.01283918122310842, -0.05255213891584751, -0.006240223164113466, -0.016106840125124745, 0.08142401276513711, 0.1058552479139966, -0.11998475326435164, 0.11957061202535613, -0.08166281766826826, -0.08100116640823592, -0.09722639656530478, -0.07374158541135423, -0.03620122354358242, 0.03122859793140715, 0.06059751084463057, 0.09897891377665172, -0.05217583755899593, 0.04374547119132752, -0.10451426831120929, 0.011321223191006891, -0.06167294961600873, -0.06569552625849849, 0.024499630501199462, 0.09359241167398605, -0.1452064620008438, 0.17259058754000997, 0.09952965261262028, -0.12709526147390496, 0.21705984080863577, -0.040929715233300266, 0.12939189586663655, -0.08943123120837215, 0.044471916807160165, -0.11218023815177548, 0.016320812203327973, -0.02071216224781518, 0.14334594470597978, 0.038974850680551315, 0.01432807721947912, 0.015090145037505083, 0.13665370405735514, 0.046969734688286954, 0.05647726769483924, 0.13860149171483435, -0.10551963401615003, 0.05682563383170551, -0.1613009224955482, -0.050728922501175104, -0.10026043922692301, 0.018223322885729497, 0.07664349791745377, -0.11104661615169047, 0.05623517329650376, 0.09291940665830319, -0.06958372337318358, 0.06661422791572832, 0.021482326211436552, -0.12969402476980027, -0.04360056190392866, 0.07329156899390203, -0.17940263686302818, 0.14526034921772785, -0.02865919297622288, -0.12570196877079615, -0.2413429823621091, 0.07849026066004486, 0.031798321535695, -0.11223436774815802, -0.07692661121943273, 0.03263099253052941, -0.10966533605919433, 0.04703357042149239, -0.03580004218827323, -0.0830430315617432, 0.006341838766785089, 0.07005487267284934, -0.08129608089219942, 0.0883712615984224, -0.01777130784401971, 0.08996223787054679], [0.058553274344837876, 0.05167337858240261, -0.013241042058171469, -0.044973049807708436, 0.15426540756583731, -0.012654056943220646, -0.016923411240777467, -0.12477541315904843, 0.08952658086107894, 0.12724088370753528, 0.07601936790878872, -0.06114457297460336, -0.09009342902912584, -0.016456686544883293, -0.14412964664283623, 0.02214826734905178, -0.12881687978628292, -0.017553620589052188, 0.029759984320898308, 0.03675196124367776, -0.17036233456424096, -0.0972870698878449, 0.00876085089873314, 0.07998268110857577, -0.02824740356345431, 0.13503945661452132, -0.11812738983696044, -0.13275556841177336, -0.08494643285344265, -0.13550031237152102, 0.08877766494055923, -0.10034578532076774, -0.08469021347029611, 0.05423583301849784, 0.0443964720027438, 0.007219265513818916, 0.014286456255926673, -0.0016664562251281865, -0.13679436517851012, -0.0802238222214128, 0.0760662358360191, -0.14319269044291894, -0.1533698318895291, 0.14066398090670607, 0.08544016978964644, -0.13512625862499208, -0.09767924691786861, 0.09091090025464325, -0.0024848730223579777, -0.10845565720779692, 0.01625078031160496, -0.16031003268801866, -0.12346640776570095, 0.1561913897754225, 0.00905297820627623, -0.03706340361217872, 0.05259235846743801, 0.08650405120155616, -0.09026407030532073, 0.13018591424354561, 0.07485186435707152, 0.05101485181480701, -0.1661239880941959, 0.11046791765122449, 0.12587107679492013, -0.012530621794353713, -0.07832327392201129, -0.07698003329454682, 0.017040770773321202, 0.1300658433501443, -0.13715541627962965, 0.08044257157140938, -0.08003321184576194, 0.1637504694370522, 0.04391993430825057, 0.044255272276973054, -0.06744599426113522, 0.12460809242390827, -0.10511940793023258, 0.0684908440511522, 0.12311712662271794, 0.06629263772305924, -0.04917641074769886, -0.16267692279935178, 0.024236150498162468, -0.04999531657561679, -0.05933970771763178, -0.018264735574494012, -0.0007044081091762164, -0.09689054497349617, 0.010026246282262279, -0.0314258687198524, 0.002557079079580013, -0.14768522293609967, 0.1731469980410307, 0.1370848836160548, -0.08006217688229732, 0.0943638806458564, 0.17598194479385965, -0.06926590953280433, -0.007359726161926676, 0.09700129556988132, 0.14077366216654943, 0.04170982043883424, -0.11472729438296143, 0.003936198380649185, -0.14005057040166646, -0.13571824763422388, 0.2000727436081212, -0.06928137664458743, 0.026182456623701483, -0.0927632409677002, 0.1542216634440362, 0.024768596215310412, -0.04837743564680923, 0.050726657251184255, -0.13997196219343944, -0.002299247170105658, -0.12623418870375247, 0.05736623121734686, -0.06241248032458327, -0.04174206104094238, -0.08342479109220113, -0.024642576121068873, -0.09990328794569615, 0.07109406882623774, -0.11357919560442818, 0.06035294286159628], [-0.09681542759372494, -0.10565438859410264, 0.1088570591463621, 0.08868273966599602, -0.13394724845280917, 0.10955006088128738, -0.06767889028666738, 0.07097489032722634, 0.017360305300659414, -0.1861139240299959, -0.06150700176043593, 0.11217732915248979, -0.09495097893159246, -0.10773648585684369, 0.005217351385256415, 0.06733720280554938, 0.09911950242860249, 0.17570161740919576, -0.09434137189463299, 0.0006257648328443554, -0.03162357864876959, 0.018904514125460577, 0.09589463260484185, 0.0721946497220611, -0.03381170446076629, -0.008548388786363156, 0.1388091931296042, -0.10326776351708167, 0.0662074108239719, 0.154344043110403, 0.057240820330195806, -0.008530489291129413, -0.07682181228233532, -0.026183643880249373, 0.020421514407677654, 0.11603160542311375, 0.13307998141951463, 0.14400764269596408, 0.06249572375637246, 0.11211476632839508, -0.08275612607868366, -0.054534016497547806, -0.0626450327546646, -0.07081443297994301, 0.06972237392658102, -0.014750081769103644, -0.07038056416574379, -0.10348528589249437, -0.025093969618540986, 0.18077198804992953, 0.07916415332646562, 0.19990636926170086, 0.004894933527797458, -0.012617556254613322, -0.00913857277512576, 0.011664610456278675, -0.05973805839109027, 0.03191196473112402, -0.11153280360773848, 0.10940201796905565, 0.09943480274286118, -0.09792998896685037, -0.023936745563678433, -0.05078808870172149, -0.03367628859565754, -0.09506198942679443, 0.09513224817050951, 0.002719507010330633, 0.15552516961865814, 0.07663214770826321, 0.1156589036893049, -0.0997010799734447, 0.13424138875061628, -0.05957945813903865, -0.04302376632408803, 0.07065209341259768, -0.07194371131240979, -0.049832594539422743, -0.14324675851515706, -0.11402485854929044, -0.11108840831978882, -0.09718336303498658, -0.11511018580619393, -0.0020217133667509595, -0.021920901367624358, -0.022308814705166945, -0.1398451129381934, -0.15732098570195238, -0.07589117164559916, -0.10296984069980397, 0.1461992922996888, -0.08524392134911973, 0.10195025367360361, -0.018050683472291728, 0.005307036092276362, 0.008166649979646869, 0.11980658237576465, 0.021303927512864, 0.05836539272516232, 0.05386310513639649, -0.008837153773155734, 0.008205720020814915, 0.02369908876947061, -0.16622478180122072, -0.07402823458742622, 0.13102968782706537, 0.0315253661815416, 0.09998979541682679, -0.015968126885111684, 0.08398979568745538, -0.008660652516490012, 0.0910592684767735, 0.06634835423049007, 0.07264525290271068, 0.06343276608807338, -0.014714673888785747, 0.10735237891105885, 0.1040404686955209, 0.026219498034549673, -0.1226968415135481, 0.04973283175970365, 0.07392996336945533, 0.03479394625688719, 0.0015563070636545463, 0.07219135008974685, -0.05484322181832244, 0.024814737006135623, -0.039502879261557045], [-0.000749968653396824, 0.010470921115895156, -0.15307909827087263, -0.14620824742957375, -0.022535318321442042, 0.20993818703485814, -0.08988950918358227, 0.01979105625875914, -0.14174655767855665, -0.07128350655543021, 0.0030803354299617975, 0.1332807203195118, 0.11026256565839886, 0.004714119425340232, -0.18748820424481738, 0.06695378606531194, 0.042097052186569665, -0.1442788707687151, 0.20557566164256075, -0.038474881752104007, 0.10040995322830143, -0.12260697635211648, -0.10265220968421977, 0.010338187997507915, 0.19954997133666055, 0.0942907211535056, 0.0981248410392625, -0.07810606382536239, 0.052063075502438716, 0.12162708940572668, 0.004678888341411443, -0.15682319473949696, 0.0138588207727625, -0.10554710931258662, 0.04415909838566813, 0.0650991058477352, 0.05891351910824365, 0.15386580968183353, 0.08455141273478768, 0.20616789041385802, 0.10582585926716141, -0.1838737351153543, -0.1802724836074935, -0.03772202309218232, 0.08578138548900542, 0.1668956774183025, 0.1506692253050028, -0.13997871686023985, -0.09759716392558705, 0.07732859557389411, -0.022095157779988883, 0.018690601766974013, 0.1424939984546858, -0.06590661127236862, 0.052839865066862994, -0.04509228716714286, 0.08163955828396377, 0.020080446261727336, -0.09104775372032489, -0.041655206701263325, -0.03829639624198641, -0.017718402606752885, 0.07419921446905012, 0.08382866183772002, 0.04077094035357038, 0.05654896592077136, -0.11493636171397943, 0.07224272659227074, -0.051460937374184834, -0.013242071500043837, 0.014696042327909675, -0.043106226101349863, -0.015903777583898757, 0.10278162148430334, 0.053727646343213066, -0.1834663892140854, -0.17060203361688556, -0.03143267615811808, 0.0551837059414113, -0.01736079378727689, 0.09550433032149384, 0.1339356908810453, -0.05350216011206994, 0.0516500996330106, -0.007380286926277974, 0.048375886451203345, 0.09175484828705509, 0.024503328940713075, 0.10280523784748655, 0.08741104462376498, 0.016989917128791467, 0.05420805294573521, 0.07153260881797607, -0.18875978786843567, -0.05700133603088465, 0.08213882839192979, -0.05714629152145303, 0.012398928746455205, -0.018275284569456922, -0.10451818926090066, -0.013281605007749551, -0.09257259243404653, 0.09955175016272778, -0.01934644163308319, 0.010756624737609454, 0.00108959987998307, 0.0792579477550565, -0.07249991931489613, -0.15493637799957505, -0.10216815917374403, -0.1614742384725391, 0.030806342313849412, -0.08379855675119632, 0.053436152050671454, 0.08979723228203826, 0.07555470496594965, 0.026097672898442264, 0.1185758099598333, 0.10626921753017425, 0.05436247493680621, -0.05286969524082771, -0.020922089938715187, -0.06356297496152404, -0.04227473445459797, 0.10931953586601213, 0.032389447846551414, -0.12250198900938446, -0.17698099046203566], [0.15068339083776017, -0.05651909249474704, -0.10837368586028448, 0.05541988890313699, 0.05631805403858463, -0.14381796883623196, -0.08002749742102404, -0.14399621995916723, -0.07969707512280538, -0.11503071028465148, -0.09432306819004273, 0.06545883877604093, -0.09750474010006628, -0.13305070328899282, -0.11333176641168671, -0.056096244567411344, -0.06965057863639433, -0.07527358909407303, 0.09954711314512953, 0.2031694291623079, -0.008667721141282222, 0.19438223925265322, 0.0038686078773270526, -0.08216198173344609, -0.04040625319873757, -0.05428068381712146, 0.04431412590637083, 0.030273752095375195, 0.03492417584487022, 0.16164717575485366, 0.1196573877636302, 0.0990166302776894, 0.019862571828103193, -0.0841448241930047, -0.06589769801977484, 0.0690033714275611, -0.05050453143973568, -0.14725651964011224, 0.1357360210663466, 0.06937771861114747, 0.0956630622828651, 0.1001777422105803, 0.09774516365346483, -0.04323926807953032, 0.01488006757206335, 0.15344562504726747, -0.043667493908163706, 0.01997434670971396, 0.020231919379008062, 0.003828834675396619, 0.13739849352639938, -0.056724337727712605, 0.12217747226920538, 0.10319671195835532, 0.0015612636952400264, 0.06605891702414249, 0.07618290481440085, -0.01549303203277776, -0.09916531725806743, -0.07349555234455105, -0.0015301285675851505, 0.11656741528931086, -0.12957511067354105, 0.049767330916155164, -0.014109915359230098, 0.17412319902406695, -0.04891785764058431, 0.010198647158907701, 0.08334330302617343, -0.11460667807373216, 0.05085187729982361, 0.1060705904614627, -0.10289189157568383, -0.07654319551542899, -0.1683599868632471, 0.13508704139575015, 0.027976567673420223, 0.21129154332767222, 0.030763813728181454, 0.08178285730631926, -0.063417974999425, -0.08654915215898781, -0.03605483060821238, 0.013018761613581578, -0.028284401603118414, 0.04876416471627613, 0.13893844623513357, -0.15224433655799754, -0.10291039780016333, -0.13485590769323702, -0.12717098718297867, -0.13846686433043057, 0.0036726302655143658, 0.017698524967196805, -0.10736053717010029, -0.013761831952116315, 0.11090176464919738, 0.04713350944222706, 0.09072087579690835, -0.025161623576462712, 0.20014573692351398, 0.01804806553300021, -0.1846906720971117, -0.08353342355567078, -0.04544422039543348, 0.048142558827338304, 0.08120312510955964, -0.016478645183852454, 0.055381734869068125, 0.05910978094716556, -0.08997613723460195, 0.16821721287216318, 0.046116901836175096, 0.13477090891975232, -0.006636988406207787, 0.08608583611548673, 0.022566528891459436, 0.10500178852435081, -0.13310765307932085, 0.030659210535689478, 0.004760867871366583, 0.1573292312904907, -0.13394835319317064, 0.1558754655078525, 0.13291976336283698, -0.18088511043216035, -0.01451289324171462, 0.08887915320874278], [0.14263449980670986, 0.13773952285473445, 0.0749256463008957, 0.06107734546165037, 0.023502101368489528, 0.07194243648300977, -0.11778446448243277, -0.08223828077049382, 0.04299705744464576, -0.05657366313981334, 0.09933001982038313, 0.02495025098572421, -0.0535674039172944, 0.10162298552638012, 0.059407891454017384, 0.18325942308966034, 0.13341283670192888, -0.0625263245252639, -0.1261529146460649, 0.11337777572809504, -0.1816351289134159, -0.04835339429302829, 0.12193695601956477, 0.15565639233225123, 0.02504670540580823, 0.027142212551092417, -0.1418050354190615, 0.04443520979694781, -0.010768887383713548, -0.04201944643317003, -0.16364733074520776, -0.15750399009434263, -0.0331947555905771, -0.01786014015329796, -0.030181608888937426, 0.08831689635827404, -0.046438000585219276, -0.06293683160490443, -0.11734011434618605, -0.11594064546967292, -0.09688197775943726, 0.02571644938487773, 0.014332383525820846, 0.11142876856707301, 0.08548403488078972, 0.08194634447102388, 0.06205642351746295, 0.12217944811015322, 0.11733294559621571, -0.00661799433780644, 0.058505933076032135, -0.1531449437796719, 0.15524279594403176, -0.08519842175767217, 0.06165731269106131, 0.15212004676802374, 0.02010690977207981, -0.11907238674832471, -0.14452926221674567, 0.0716723971569756, -0.03304337444766209, 0.09554672769660273, 0.14337615833490291, -0.08341719662844937, 0.13571446811776341, -0.05367931384671368, -0.0818265432053951, 0.14847105710290767, 0.09166829994045479, -0.10042107128249135, 0.09961551049204197, -0.09703068176786644, 0.014193296183406314, 0.07286401470681174, 0.10857808421930469, -0.024649257756187974, -0.08145016783068917, 0.0185369082833148, 0.009519280186244585, 0.11622681234156597, 0.16432228378019798, -0.10761375467614118, -0.11705013783897321, -0.10455447005128307, -0.0706698445978234, -0.03784637058185622, -0.029813823225110593, 0.0757791253951856, 0.06508570351784995, 0.16994693326271057, 0.21224331852860662, 0.03871187505169651, 0.1340077706503699, 0.13663868839213092, -0.03738212869847215, 0.14115492584195463, -0.024523754623778156, -0.159895507920359, -0.08936902451242228, 0.007141674711839147, -9.373595532453937e-05, -0.10205291356016168, 0.03834743287384341, 0.09917254799712248, -0.13965411983360504, -0.037709620842545026, 0.05700980115038527, 0.038105629446790676, 0.10410805003112863, 0.15461612291295934, 0.09040723179141198, -0.124994068236488, 0.07770304972796033, -0.13830218011939704, -0.15503263310695434, -0.1522361498692912, -0.05643378630492799, -0.00796174598242859, 0.05374302753215895, -0.01321770800944097, 0.12780532384134236, -0.1337466150662031, 0.13270931776690773, 0.12536975878139645, 0.014227744278561154, -0.08800373439091383, 0.05621517662173211, -0.0009155812600011308], [0.002825408279894958, -0.030506861898049915, -0.041871604010474225, 0.1256290743057121, -0.1559536685015397, -0.11018988622892126, 0.1203378760588008, 0.080996261079197, -0.08182110642494132, -0.03237684312944904, 0.17418532989973284, 0.1571386614401608, 0.11623891407846922, -0.07200092596564073, -0.10941635322736336, -0.071799086479814, 0.07623204196844602, 0.058426186890371365, 0.13037175266589376, -0.10079692031635785, -0.08416220171594313, -0.014194721589627354, -0.07082975323459557, 0.10191862588984456, 0.0668713052037319, -0.007148401178567006, 0.21669635847726315, -0.08030257710574017, 0.1569713933708707, -0.08633106623837544, -0.10864634566922872, 0.07366824172439093, -0.10268862851276778, 0.06563543369833205, -0.0005926373122967928, 0.0696373852529111, 0.1007954643627373, 0.0902401955367235, 0.09372538965231691, -0.14278331568217828, -0.014290124993565712, -0.0010927590329427568, -0.04899506921760664, -0.06320777305724758, -0.12513540203315454, 0.1263684098058517, -0.024137880077184246, -0.08538261478047818, -0.176110130133596, 0.1238587790246109, -0.09230814643449937, -0.055724899450268074, -0.12262432494734558, 0.09969781034502873, -0.05216642665626923, 0.08796213434489858, 0.1394415173052589, 0.07322716490668119, -0.13362033422679293, -0.02993487033930022, 0.036668189427464255, -0.09306854793512703, -0.034398482167168475, -0.07416042018282239, -0.10694188779310267, 0.0007471019819879954, -0.12696554902494195, 0.03161456023345017, -0.024588459239490646, -0.12351815317402338, 0.010772368791353532, -0.094402685968258, 0.05158881332901543, 0.06454403524482262, 0.11469899536601423, -0.1771217010079011, -0.07256728291936383, 0.13771102077022135, -0.09222881085457454, 0.0639928574746664, 0.08942109802335932, 0.06489793018085595, -0.05895431662963702, -0.10497608187109854, -0.06421420794590935, -0.09262740101916907, 0.045110930943130984, 0.0032957882207992413, 0.12241579419324886, -0.03485093727927586, -0.09766966331536617, -0.029512021144322064, 0.1356316802043601, 0.18049726394786528, -0.035968129573250525, 0.12129303109059736, -0.10353840825893161, 0.14661071426599942, -0.10564469500919285, 0.040628468857443395, -0.03143238739759207, 0.1729494060011299, 0.01840982233036531, 0.10534235709076081, -0.057949632029570056, 0.04492479151194378, 0.07970888301329655, 0.013270200600139883, -0.009177870220720112, 0.06593154735321048, -0.14976793069537808, -0.14991680778760574, -0.04979573413194439, -0.03709924634184321, -0.18647567365246018, 0.10737688350134392, 0.03488861931662901, 0.02476147860936075, 0.09091595359642184, -0.13540835227490972, 0.08506298570520832, -0.019140119129435314, -0.03642477321089723, -0.1342316756322071, 0.04302775165062951, -0.1523309244009307, 0.133564172531382, 0.03284557106999165], [-0.11957885277464739, 0.13002351413114255, 0.020373135654064463, 0.23304799215709235, 0.07267995280161574, 0.030797965485887445, 0.08586813613927183, -0.051633498567214005, 0.003148121651129962, -0.055388223092450846, 0.16476006265806167, -0.10112291863454306, -0.17681608646341954, -0.09374242555374872, -0.024559400858887737, -0.18467817834200226, 0.024052394099664563, 0.11005212479803966, 0.07113270483853103, 0.02147115086870217, 0.13177043432063856, 0.14638893531274408, 0.11259941315284262, 0.02082658689912895, -0.020864385795553185, -0.19748309026614508, 0.07182760251502887, 0.17494819526535904, 0.0840189731913198, -0.05147948830686474, -0.12094635054146988, 0.044156161600128266, 0.08558633176162747, 0.15975629802144595, 0.10564832504578131, 0.026610991064297266, -0.15151387315833353, 0.005554379636862811, -0.022570412994836832, 0.05445148222723722, -0.07389965914125277, 0.09511103524006556, 0.1086860413622665, -0.06485704127679666, 0.027568622065079675, -0.06167040421465768, 0.13219104848646146, -0.15711697340433567, 0.030548639089398158, 0.14811434800232745, -0.1020042600243816, -0.09449760090231707, 0.038682313438206405, 0.1505290598973883, -0.01864351210007534, 0.05455780117933847, -0.06644980251969683, 0.0011506312775951782, -0.14515418346421846, -0.08751909635117885, -0.06229348297248584, -0.03995286951153073, 0.12679957999428781, -0.08544407126366294, -0.041864341031831585, 0.025251786773711097, 0.14587907468795916, -0.13760391665923435, 0.08600490988566126, -0.1202968617778016, 0.002369798074251802, 0.01721423443409885, -0.13614124989314735, -0.06477678867160448, -0.005256276815475207, 0.13790020190790717, 0.130267967691382, 0.03073247894005764, 0.13161014375554503, 0.02192876406460617, -0.03878963041456589, -0.06980910750423555, -0.031587588274062085, 0.030872462827636865, -0.14276251683351138, -0.12098104200865108, 0.018479154002203572, -0.10521307017684943, 0.10986504657495955, -0.025431309729548796, -0.12165757716784145, -0.13895822780671926, 0.13856148786934594, -0.10404547272661548, -0.150350373039662, 0.1288078191552703, 0.0003782840178117754, 0.10292635760378409, 0.1303118924695263, 0.062446489720882264, 0.10357401277062826, 0.08632876096265914, -0.15614796539029172, 0.025406337524573153, 0.04505870708045879, 0.09489901997128516, -0.13046969271403225, 0.12351550348958897, 0.11612680038678087, 0.08114142494840786, -0.020400052145368636, 0.002448145712459644, -0.02444672674739333, 0.08832411084729938, 0.11461819475959041, 0.011360773144354746, 0.15273762542740044, 0.056298170648656255, -0.174186236148312, -0.016340350090284148, -0.12625389701923923, -0.11087467193106021, -0.022186097139408913, -0.07123404009118628, 0.02819837163128176, 0.019769763312772783, -0.10393130455889246, -0.12860941895376188], [-0.15814793077395906, 0.033863222385315736, -0.12985434309927227, -0.16010051918428936, 0.13274699616866645, 0.04711420092175392, -0.13189782574548942, 0.11105391040883196, 0.14317650100407808, 0.00966318202495585, -0.18559255015222365, -0.11852405886576009, 0.010323603053694267, 0.15348570437126502, -0.10669241386360931, 0.0912963787454368, -0.1912113861508537, -0.07015235641160616, 0.02006629573335431, -0.1151760048121629, 0.08624358597561774, 0.18603214462271103, -0.09197586604881612, 0.06432013743875464, 0.04928840429350206, -0.13382152126231772, -0.1735315437468215, -0.1503133831571605, 0.020543652592913592, 0.17161232427757012, 0.06242525624520889, 0.08630949482243107, 0.004853841551208243, 0.036455098888861295, -0.11907531463833873, 0.13210681288030646, 0.052257569517128025, 0.1613695413517228, -0.10608765620303069, -0.06257417137523795, -0.11088409613289882, 0.13345179992714784, 0.09022883154463078, -0.10001411862321387, 0.007960670876148416, -0.05925910743633594, -0.08262420483317225, -0.1767816105573994, 0.1418834063609849, -0.07666171696072345, 0.21426578154551137, -0.0665770601019998, -0.03072421327342707, -0.16962285420485032, -0.1471574209467945, -0.0004776909758969284, -0.13946935305856425, 0.029431873461089265, 0.10794467008042961, -0.041744326510356825, 0.14980117739155563, 0.11278392369421608, -0.054799948052048346, 0.10316978702207345, 0.08383320441442076, -0.09027365611048557, -0.03111073333422413, -0.0013578373532358514, 0.03192405246372137, 0.1810632454261617, -0.0667956509931923, 0.16199673007091062, -0.1320411033682555, -0.021615363881767248, -0.048783229293545165, 0.11427609589803948, -0.006176347238194519, -0.03063374031895016, 0.04941514757248458, -0.015497624707716226, 0.08734043383073885, -0.09721015348765137, 0.04601541163428488, -0.03191323603352338, 0.0718651303931795, -0.04973180816246231, 0.009214917134152963, -0.06613974466909711, -0.10491520934887863, -0.03318468903413421, 0.025194918205566453, -0.03187969104543883, -0.11632019309469795, -0.1113223293902126, -0.12446098789240641, -0.07929462023169992, -0.014601441238309719, 0.06754662550430222, -0.0009867853183956876, 0.12175152253126002, -0.09562904804991187, -0.11137425838359026, -0.11155932146622874, -0.005328268921532762, 0.07207002549178451, -0.00843916593916692, -0.04853842376803286, -0.16875258529599593, 0.08409115040020507, -0.06842350727381254, 0.006151341704475766, 0.1535442409066131, -0.1737830914783639, -0.10892980118076814, 0.06754801252683278, 0.10193879077662926, 0.05698464313567618, 0.04512869182375632, 0.12060909951434313, -0.04002579206365067, 0.036450455128161835, -0.11024802280136217, -0.042536307743562214, 0.0515916160049777, -0.12996425853218913, 0.10945099817459195, 0.0489605095578551, -0.11552374956859787], [0.12677829026005005, -0.10741963074395257, 0.15192448893535906, -0.13851820458013572, 0.12884052017183087, -0.07573524453620828, 0.037771966931724056, -0.13934253560422066, -0.1314495592852594, 0.12347659669667878, 0.010868367148497248, -0.1237614345141443, -0.038633721027726615, -0.07651569058060466, 0.014280573088731487, 0.03949580914424371, 0.11438613290461552, -0.025030593793298028, -0.04588805719406071, -0.16385605472321427, 0.08341346802533744, 0.05432776727028199, -0.006755815288841072, -0.0025242240759540875, 0.04613242957938981, -0.1357407001017126, -0.144986563025644, -0.075251150050598, 0.021120652167343927, 0.007294509849709258, 0.07484302653064802, 0.05453351022948891, -0.0013710233133506008, -0.15701126574554955, 0.10933357961911339, 0.04010642590074921, 0.06439471358396358, 0.09668368538319703, 0.20271786321516905, -0.012379792769697171, 0.06276401385192434, -0.07417230258268623, -0.034285111093442996, -0.089009046418531, -0.06680474353597358, 0.1396724427060207, -0.07184481021711986, -0.10967197765911198, -0.014383322249521414, -0.08761861326112903, 0.0026319476722163893, 0.12940382800613126, -0.12189207100492272, 0.0189761111233439, 0.0394224633600746, 0.03409619400716015, 0.1898586737624386, 0.08353717655312991, 0.07228831865155969, 0.1485653776511078, 0.008132453029406114, -0.09181377677077635, -0.19958982381815343, -0.089356609269204, -0.09084946518069817, -0.12619532124769103, 0.07258218716430823, 0.04742886644454067, -0.0019986180779555675, 0.18057329768064911, -0.08813486642824143, -0.03439365444754597, 0.05812048215594814, -0.017716706348509942, -0.14751524789160925, -0.011550452790841364, 0.11049001202545417, -0.043399164227204245, -0.03997379135098645, 0.15851033319038, 0.06177445535429457, 0.01073695010521159, -0.12795273405915822, 0.10977136639773287, 0.09659653980424959, 0.16655645400419597, -0.12045523222658319, -0.1542857886417568, 0.0709819541766353, -0.06782364815020617, -0.0933356573687121, -0.025670890965576475, 0.07925803803138462, 0.03906412804347072, -0.2133011043799214, -0.024383461090192207, 0.15896828709887564, 0.07846044977578034, 0.04912610039302382, -0.057505013365489945, 0.07335746096051622, 0.04460801885227198, 0.07561331735948239, 0.2050152405196127, -0.06586537563823973, 0.1271471281097666, -0.1501348425923158, -0.13360235333886203, 0.030957482713135896, -0.0655758185833525, -0.08198837739931109, -0.07655266735522719, -0.10993329242367418, 0.10259523021499056, 0.0010721013738734626, 0.06677029805355443, 0.12526413968218902, 0.08604792793592804, -0.03877873619428504, -0.05699836715296386, 0.11391656870685009, 0.02571692631062393, -0.10900671054837083, 0.015377278459222397, -0.046256599769630126, 0.14550437725669066, -0.20935290431413034, 0.012986597049223277], [0.09099281971863966, -0.07174898946824547, 0.14585050765156046, 0.11573030282167195, 0.12988203852372154, -0.12063388516703745, 0.046828971445076494, -0.07926482953555786, 0.07022079676217828, 0.08011728489054606, -0.0036744460494279358, -0.1400136259931628, 0.04433303985924323, 0.0453581539144129, 0.15622461857913447, 0.017145465688902895, 0.14724471076205548, 0.12742410881510455, -0.024629791727009957, 0.03728123660325973, 0.04502580823237611, 0.14565368242985505, -0.1856257612997875, -0.17093814611168315, -0.11233981387274992, 0.08477992842649466, -0.04243341363999383, 0.04521796900113559, 0.019201225563812846, -0.045697204306659675, -0.008627360398495144, 0.05829128117373684, 0.15231433218188775, -0.01528960779624046, 0.04863532189713736, -0.15427104667284908, 0.12265962964797199, -0.018070167777352108, 0.0679277013056933, -0.13902301254899216, -0.013291132282794832, -0.13631798702501083, -0.09357403749176624, 0.09247782791465758, 0.06120308831081686, -0.05864066407979708, -0.16352380703433705, 0.07815235256174762, 0.0820724400136452, -0.1314525904155074, -0.1020357717547449, 0.10425070119611214, 0.14874619317771176, 0.11035165646792817, 0.03550632126224002, -0.07756924777469709, -0.08145215569842693, 0.09867236544242668, 0.045409927255372136, -0.09023004089879874, -0.08128377520168313, -0.04086720711470366, -0.1451121905136436, -0.023563612906206403, 0.12504337405172308, 0.0024360461160914328, -0.13205896604666895, -0.1818990507785996, -0.09205302309998317, -0.04585911557605062, 0.11881487126094491, 0.16229608472586318, -0.021866288282988037, -0.02792710427808406, 0.14381531343408901, 0.10899782602719356, -0.03660903904074439, -0.17264648330093563, -0.08762655235658384, 0.1374923832782437, -0.13154715757619717, -0.013758962569467232, 0.08408919213641959, -0.012085947385462547, -0.0033482634012063617, 0.037045593651981, 0.04330620495479235, 0.05052288871580449, -0.15500305587153992, 0.06716015746029247, 0.03895483572604164, 0.2282358597961083, -0.0734360544332039, -0.019024855526179305, -0.06355881607108117, 0.04085120980615996, 0.13744773682466896, -0.15807057388239726, -0.06551439732429065, -0.006304108314032388, 0.018441588685551655, -0.03140955622846498, 0.05109124875497086, 0.10242918516622364, -0.05353500817628482, 0.09499226463509601, 0.12903883140016711, -0.03706271778613529, -0.12991858982681817, 0.02330060938404996, 0.028598195659473698, 0.11767645407227105, -0.13790508149602482, 0.15404807773374232, -0.01242671672013344, -0.18639419295531873, -0.08291393888190861, 0.12903812964328415, -0.03851742334026772, 0.17655436458420184, -0.04207997374422099, -0.03879292055581496, 0.0961908237587205, 0.0019070213356407687, 0.026026726000681278, 0.06625241010417647, 0.0033996407897178816, -0.08914357776607428], [-6.023247322055007e-16, 5.765195237117809e-15, -6.417108822129577e-15, 3.3038787640559233e-16, 2.6164164312169945e-17, -5.662199654745234e-15, -8.711300774480876e-16, 3.2449664249727103e-15, 1.9397611651735557e-15, -4.685816087859628e-15, -5.619886736195044e-15, 3.610752489551559e-15, 3.235066957823371e-15, -1.591446459114655e-15, 2.672200875219202e-15, 4.9684572649362916e-15, 1.9810684782095117e-17, 1.0566590524266054e-15, -1.2318929159791092e-15, 2.482587337037201e-15, 2.8561923085334845e-16, 2.4988740647009444e-15, -4.421567262671771e-15, -3.857998669433263e-15, 7.259560293786277e-16, 2.3857597504501007e-15, -3.149977631789854e-15, -9.437492156695555e-15, 1.3533001226614521e-15, -2.32439165317499e-15, 1.3475405645553362e-15, -8.970472265328726e-15, -2.513706902097536e-15, -1.1697007776878947e-15, 3.650430738086273e-15, 2.731807366553849e-15, 2.9740887327997064e-15, 3.190889412190985e-15, 6.295880503825716e-15, 3.893786164992061e-15, -9.727424306309182e-16, 4.863616147843193e-15, 2.3565852574372035e-16, 5.240057850052078e-15, -3.8966026129031144e-16, 1.6793229931165126e-15, 2.662481697302632e-15, -7.152473843777005e-15, -2.037765425471465e-15, 2.4786527527493294e-15, -9.46563547770922e-17, 4.467191744340904e-15, 6.175599133091887e-15, -5.809468610512819e-16, 1.4603896729406905e-15, 7.463312676953957e-17, 9.275367187425597e-15, 1.8714370317700728e-16, 4.0264536989133337e-16, 5.085101662473711e-15, 9.590461238379028e-16, -5.588435845545164e-16, 5.384435379116149e-16, -5.6290457013160356e-15, 2.265417017975088e-15, 1.4495326689058342e-15, -4.981383283420084e-15, 2.7043768059477754e-16, -8.077554508839934e-16, 4.9306024657315845e-15, 3.4713218822937344e-15, 8.900043559502623e-17, 4.745196822222163e-15, 8.091036546794429e-16, 2.1251660345205233e-15, -3.1831762789350256e-15, -4.602873942507574e-15, -4.4421712167380104e-15, 1.914635810760267e-15, -8.063867674332581e-16, -1.0580172586712493e-16, 2.2666045980056357e-16, -5.148692170070876e-16, 5.176842926091215e-16, 5.874519450241136e-15, 5.689684667311177e-15, 4.076923267211421e-15, 4.070896091126746e-15, -2.6972147296145257e-15, -2.6252226641215537e-15, -3.723082488873426e-15, 2.3781815014745542e-15, -3.4141602885529765e-15, 8.466234746012644e-15, 4.036467307891186e-15, -2.2215173785967927e-15, 7.189156184856835e-16, 1.1730053745965315e-15, -1.1968476043149997e-15, 4.981138290891242e-17, 2.051407445354447e-15, 4.313365919141951e-15, -7.190645087075795e-15, 3.1288539150909955e-15, 2.051867262288337e-15, -1.2880988390210603e-15, 2.9114354876533457e-15, 4.242786854092245e-15, -8.710412351707191e-16, -2.140538476831873e-16, -1.1862209287018815e-15, -1.1077850231442044e-15, 3.445728270667023e-15, 3.549073138140712e-15, -9.4597993646104e-16, 5.384448452708563e-15, 3.68071243247932e-15, 3.288145353629041e-15, 3.2475571300936094e-15, -1.0971407106027134e-15, 3.2313131094229402e-15, -4.700547101484134e-15, -3.3867706597084564e-16, -2.2220619227680783e-15, -3.5269962785617498e-15, 7.227350118286e-15, 2.8256499955573883e-15, 9.46592327586052e-16], [0.08365188918185218, 0.01425928424029394, 0.009267153664570461, -0.0010468046170341108, 0.004193523150277285, -0.06286446150389582, -0.010526527443028672, -0.030612821351550537, -0.042990748979752975, -0.021392097416959185, -0.02614105888963517, -0.01889984709417987, -0.0045892815629651655, -0.008903081640004099, 0.01697014671150661, 0.021279262056958775, 0.04098716043207997, 0.0021589074192695143, 0.012272184323050684, -0.010051775716167277, -0.006757643557781024, -0.01650155991223821, -0.029702746554494727, 0.0006222335201568536, 0.004747864961883802, -0.018272033879515075, -0.07979627776254684, 0.026633353163312935, 0.01847926238509969, 0.04011934205481254, -0.029050164374858647, 0.024135688200911234, 0.0473665199142215, -0.0010757009555885093, -0.022000182731782794, 0.0116901048001495, 0.019831720454231566, 0.001627559613003592, -0.018285374612381316, 0.0018031149184822514, 0.03550614510573406, 0.007119585107176179, -0.05345535485250983, 0.030709265354605532, -0.0004972227525365299, -0.0422136273161778, 0.0021893417889501327, 0.004219114648730012, -0.039486048400959414, 0.022038137030377325, -0.02680481482492008, 0.03158022013275601, 0.03036474269056009, -0.014977509682477167, -0.021750503583468892, 0.03605716095516636, -0.046228783963963495, 0.0016572897749549214, 0.034651347875533034, -0.015775325264443106, 0.009274258892611744, -0.0087652278166706, 0.04707393555788923, -0.009108091232872118, 0.013780300697447219, 0.03068365481213099, -0.014237105182306057, 0.009665093274400531, 0.005150109848618544, -0.04899668135118845, 0.0044653899297222325, 0.030425745948017, 0.013341513221612204, -0.04112187261393574, -0.016893898698894877, -0.020149870067278825, -0.03888144071937351, 0.003949882371260145, -0.023695070948430135, 0.0003390881937797292, -0.05446188620493392, 0.027074951697584324, 0.03950942030154608, -0.028777056862794536, 0.007957870532359272, -0.021608943056109213, 0.012545569883455095, -0.05337181612175031, -0.010407421371866241, -0.050063038992410346, 0.000570405297541613, 0.01678687186499638, -0.032164149645545786, -0.006630411639940227, 0.02426444624906676, -0.045157564232293994, 0.027109186131899977, -0.02153174123620407, 0.010236502310716225, 0.026837140251414315, 0.010625320372491209, 0.028191838984905824, 0.025141518793771366, 0.07662930521527253, 0.01168885011323636, 0.015908979730984835, -0.025866299770822335, 0.01986624569930949, -0.025932982402990783, -0.0182123230359051, -0.045458641000613434, 0.005838220224295421, -0.0078078397297029, -0.0068014923861000115, -0.00936220855021554, -0.04373557560481983, -0.046238891634169846, 0.01776328084328568, 0.004726403268752049, 0.049388402073969, -0.00497973328673472, 0.013461244117781428, 0.010428399393599155, -0.005571264486930693, 0.0062809280436039215, -0.02623671374058511, -0.017021502645552182, -0.04837460008268741], [0.2006135277742298, 0.0719386572500587, -0.12235838425723623, -0.017389125838227295, 0.013786789781095788, -0.14337090119527096, -0.13610367757428476, -0.0060071131968458995, -0.09372165409064831, -0.05314841521003309, -0.02179659302334006, 0.16418678986094987, 0.13004263829774124, -0.16796450910977678, 0.09174380952284626, -0.1541939160563199, 0.030300652144285747, -0.14079130566756387, -0.034445159468342444, 0.0661106697966327, -0.03910412805943729, 0.10155153728916089, -0.016447714332302833, 0.16461929189734328, -0.008023574264353786, 0.078818185693224, -0.054260882017443654, -0.028759006948972297, -0.017723520784279294, 0.017269833024230775, -0.14936020624971977, 0.009630164738770175, -0.1369401405262023, 0.1285524941131574, -0.1669882944999194, -0.02161762379192258, -0.08997469675269146, -0.12871115600163618, 0.12558600037554254, 0.1276934865135422, -0.09003143187410387, -0.029836085198730336, 0.07662581758067534, 0.07887745797718596, -0.1414531537758904, 0.05787047008220608, 0.03191278225076315, 0.15062836018050482, -0.0057311212005591305, -0.02163255650519985, 0.1834254802836997, 0.11676050557997292, 0.02029785705665128, -0.06776781063166841, 0.079943113181873, 0.002784673648124557, -0.10011746423786323, -0.005602641508524338, 0.13821338260016072, -0.037069400776352304, -0.18134398149989941, 0.021871684284458032, 0.1767189342978352, 0.10188947140727825, 0.017106823867843058, 0.16033312225679516, 0.10845412841606092, -0.042882518481414736, 0.00640484753717426, 0.05557029663715628, 0.16524328080872888, -0.10719033792021991, -0.04408728084187629, -0.06255172467067935, 0.09247190353368454, 0.10592921927773687, -0.04104318130391806, -0.10502956023852424, -0.09872711271024584, -0.15282185704542964, 0.0882201355338143, 0.10863975221075077, 0.11255537873684632, -0.03787453108623637, 0.00941580560685876, -0.11325405895276416, -0.06611993110773295, -0.08420116059346165, 0.052664762239197534, -0.01013259386382843, 0.22578456400271857, 0.05378314068221357, -0.17947477758341943, -0.16259752599586927, 0.1363254109749655, -0.1273457725398072, 0.0035804966906795676, -0.06484349117645787, 0.14908494300834638, 0.04990854276914936, -0.040972822741855534, 0.03658572851838807, -0.06039903526909925, -0.009319224275825828, -0.06818645555748232, -0.11839757408128226, 0.05589614364800905, -0.015889093709898893, 0.09433491073913522, -0.051708549909365124, -0.05628549387150456, 0.0689695386544591, -0.03355797616518593, 0.13024072129354725, 0.07737870900823626, 0.11927730302726089, 0.1724035223403732, 0.03871105440291436, 0.020593207558326297, 0.002015500474187993, 0.007854353349414747, 0.14675093472440248, -0.0752185268226935, -0.09323987965345615, 0.14287680178180762, 0.06211537767487779, -0.08206509944930457, 0.04263875303212943], [0.06837108129975165, -0.06006580848530325, -0.007732288220384561, 0.04287838243303678, 0.029255408047807418, 0.10568846963384489, -0.16354128873788568, -0.0455655526281525, -0.07563136425436756, 0.06768960734830695, 0.1837781962078797, -0.1485750149827667, -0.10533052833587336, 0.0647579238119142, 0.0641296236770177, 0.006246684045926581, 0.19531674164510848, -0.017946739465061534, -0.11171051461811089, 0.08240499924005253, 0.06383941422293879, 0.07872866292856036, 0.030869022338759378, 0.1103971191845692, -0.09612186958898615, -0.19623175853279895, -0.06483508497204506, -0.025901359953972455, 0.03240917322879767, 0.050764163401035664, -0.0011505480182409434, -0.019361083233181215, 0.005036525134881701, -0.043797372155874405, 0.17670532419911983, 0.0007254114801763461, 0.048096176542853385, -0.10646472992780595, 0.013921500278494373, 0.10262252131623505, -0.05525417907068939, 0.003358909984508513, 0.04578220720283418, -0.04583838404933136, 0.06746325451303437, -0.17209883369002835, 0.15780629416368908, -0.023501819705059494, 0.005016972898247316, -0.13328280335728018, -0.028850413356536927, 0.061183353608500884, -0.17834420843966028, -0.04542532421895612, 0.0612313937369019, 0.07750869397366711, -0.11290333464536999, -0.1526402136088191, 0.09128553510199942, -0.04902580543346888, -0.11909252673943048, 0.14902076462048314, -0.07372021012314865, -0.09811081831192804, -0.008932232031582485, -0.0016113435407041756, 0.14480626549501957, -0.03884079019699986, -0.20022256536104324, -0.1412960230754631, 0.1705719555628946, 0.02953510870648484, -0.07923615922158742, 0.008518867376759904, -0.012540666014679125, -0.0945434366221889, 0.0021290468238130446, -0.04846670176638307, -0.09371579995226016, -0.0073518367572514304, -0.09637819413132794, -0.12505178322828792, 0.18452444608196847, -0.04307377869548635, -0.06502003064672865, -0.04568141830214563, -0.06899207902852923, -0.1010087859304173, 0.15414530986829128, -0.02866233589144209, -0.12513803474689908, 0.002552823740321501, -0.1111568986610107, -0.006621828563763333, 0.14223224288277528, -0.034786672654375, 0.007677585369096296, 0.013522833581727296, -0.12546687095621978, 0.04127033731630472, 0.18682084839766466, -0.12696625650178117, 0.06231520715795896, 0.09647515563444542, 0.13164669581664817, -0.07515870722264198, -0.002882220710846242, 0.06585348528748243, -0.1353470315692525, 0.028471540085808867, 0.07785443422024024, 0.02598384849311109, -0.08184754906210522, -0.05390312835569469, -0.1196934195345456, -0.0927640841708593, 0.1331712209351403, 0.08644665267904643, -0.10126320128999547, 0.16048065214705234, -0.07463199933995766, -0.04168972725713583, -0.1539117831944287, 0.14061986869337656, 0.15948942109080927, -0.07483247119142948, 0.12186661385791638, -0.03580249034436638], [-0.09527598964666698, -0.07301508102077138, -0.00037970851414034995, -0.143345909410105, 0.07527432249471798, 0.009967210848383456, -0.12096707132965391, 0.06792523847780263, 0.060937589033704775, -0.03762242200938797, 0.08229483942128053, -0.017494319204180115, 0.15528233534707594, 0.06720894558838365, -0.0706113933056983, -0.1771445346323454, 0.07762378270785086, -0.13205538020169807, -0.11789955659603128, 0.11870783737420729, 0.14931882963267193, -0.09605610338778438, -0.0957652570254968, -0.09408785860795096, -0.049106331309698076, 0.13128873944099662, 0.06848770926996299, 0.1716730951456418, -0.10796288244930828, 0.1219676072311126, 0.15350789365344653, -0.07059734259795925, 0.05908443620882457, -0.04310447783777375, -0.054886846196871196, 0.16707020770790323, -0.0936018757882095, -0.12813315541902906, -0.029536361321472058, 0.017194216818313787, 0.08873679149817029, 0.10302884090214705, 0.09280641494440851, 0.160901537089621, -0.005020509788578385, 0.048339513842518486, -0.09914128554211638, -0.12522732579038168, -0.08373544271778117, 0.06274849866827056, -0.06531223301626618, 0.11737240508324107, 0.10283609374654518, -0.07167670509370387, -0.07566309808020302, 0.13619504033353416, -0.06137183045088459, -0.021862034399762382, -0.054176567122807724, 0.09320331021725162, -0.11152097541248616, -0.1827928306539059, -0.002828467026341178, -0.032456530159430834, 0.043844898242920025, -0.08163972106479639, 0.14043142806717757, 0.11351707410973315, -0.15622752450107882, 0.10991126343194149, 0.1576798371127591, 0.1836592543761047, 0.020785638360634035, -0.1161029612674449, 0.022223606268998112, -0.05583306522236874, 0.11220304009949789, 0.05618235423909568, 0.028020190856828654, 0.06305865285407418, -0.022199695862191934, -0.07588619874330038, 0.17869794360804175, -0.03874688431684203, -0.16400248910327098, -0.05667401400006289, 0.07304335100051677, 0.040657657336372145, 0.1476992071321108, -0.08108844279958528, 0.1923713817822087, -0.042968613648015935, -0.05049000258589952, -0.008961271399061084, -0.18667380527955835, -0.10572377783284895, 0.13077807467782848, -0.12076776232335293, -0.14448480229801666, -0.15369697168273097, 0.11047380089838389, 0.04166136435711551, -0.04667187508922512, 0.09494704170066756, 0.13736018691551374, 0.15093112586564306, 0.16372616178821645, -0.1466340032372845, 0.03510158875743082, -0.09651601464880692, 0.025599339363840536, -0.08946543134859618, -0.16133740971130375, -0.008889389413790036, -0.04399215891796971, 0.14729692643420622, -0.15603806800811973, -0.0314525213951397, 0.12539342499432615, 0.03797689916559117, 0.061053713766851744, 0.04443024554672159, 0.08049909722781656, -0.013950911064607356, -0.08612349334436405, 0.08262189418083359, 0.015348659361582287, -0.10482951714056597], [0.10904919628427832, 0.15278261319015382, -0.07670159899464783, -0.10378114167282458, -0.11993686274785752, 0.10101981946526228, 0.19548123720679184, -0.11949218393293695, -0.03846258576542575, -0.08182980251582656, -0.13617106192066653, 0.07552222522937313, 0.1377008378492734, -0.05813959297524128, 0.11566465115043573, -0.13934374835944327, -0.09743267333283305, 0.1278237737064954, 0.0025918877308091014, 0.04165013010713202, -0.10096355545153074, -0.10128388673658525, -0.15438985611449826, 0.10829426568235817, -0.06947613579638896, 0.0965595895627823, -0.02138421117382341, 0.13472399125293535, -0.05338501742818173, -0.0943778832925402, -0.09078750018737712, -0.08640849189765412, -0.005153431846716618, 0.06712891767548118, 0.027038937188430565, 0.18176983201165298, -0.030539570225393827, -0.17192214449812943, -0.05050485068172627, 0.059702682048384526, -0.04801097232279912, 0.05797672240108184, 0.019126034194810577, -0.1375252278716736, 0.06419853910489046, 0.015553410079300074, -0.13119339456297355, -0.04546807571187708, -0.0331156692766706, 0.1366685672641677, -0.0716241688674148, 0.15680398707103932, -0.003707290256883161, -0.04919161512167909, 0.060048706025479834, 0.08717302326205802, -0.06518329067729065, 0.030910152527693944, 0.07337659498921742, 0.15107208062016775, 0.12097801451308124, -0.13736499260272977, 0.12154108447599479, -0.13713876523768317, -0.1034623628602623, 0.0481627754065064, -0.12564732519436972, 0.10479542351343189, -0.09660548432914376, -0.0036638470103065733, -0.03599145015875373, -0.12909740669071826, 0.02679582569428525, 0.1289821145755846, 0.015418990839304885, -0.04477449681488559, 0.1306855629085853, -0.05931314874129357, 0.07322221330769264, 0.025512608812953964, 0.16121827279800924, 0.14914441470980547, -0.09871928095405949, -0.10832626099585552, 0.14129370031714764, 0.1484048311687932, -0.008913473403842765, 0.07831494721084566, -0.12870224488495288, -0.08792033220303887, -0.08525210356404996, 0.03929381061829269, -0.061070470542958444, -0.124319075002698, -0.09241661097534325, 0.07215769300333588, 0.04515624714955638, -0.05120793318792016, 0.13823282972524664, -0.09496740813346445, -0.06051045993446954, 0.038602548930473296, -0.027978962612657473, 0.0026201316090473836, -0.08794562103638351, 0.05110998657350903, -0.049343774727727115, -0.05782569085878401, 0.10459512998946746, 0.11982017524050183, 0.06476970015156838, -0.0018065717116214743, -0.01360335851403694, 0.0992660177632168, -0.0005615784013928745, -0.06540852276280561, -0.14212054127960608, 0.04847958209128824, 0.12927691792502852, -0.0686062773617241, 0.09655677227349235, 0.05077498759278623, 0.07141604420067159, -0.03417828108163096, 0.10039443315387211, -0.05495300006694854, -0.10020458271513089, 0.04062632279906286], [0.008909340937369711, -0.08264695607536608, 0.12154932750468254, -0.09450262535180662, -0.20825017973660073, -0.02613708307413687, -0.0637204615998751, 0.18175038760022644, 0.03958507575670756, -0.07560986961259523, 0.11649928647590985, -0.04796925762099612, -0.054323557757834956, -0.1611342275391122, -0.146037387430681, 0.058649750950289306, 0.1721522246263574, -0.02863165885456819, 0.15735596856587936, 0.07443714667505374, 0.03499923664525481, 0.16699049212106104, 0.12040561277431153, -0.06992755041415782, 0.06713046793032425, 0.07552402267662436, -0.03641073504723496, -0.13331559692318276, -0.10343232559360989, 0.15749262095696046, -0.1000574324335054, 0.184372734706124, 0.06557452642402792, -0.011398433391610932, 0.0646517936460815, 0.03713505309843057, 0.11459555212285445, -0.0922311740257795, -0.07366236309636136, 0.12060435107091495, -0.09422448584676, 0.09412312011431691, -0.04174777602632837, -0.0749293174955075, -0.1953852844906823, 0.029093791422288934, 0.11622574183856206, -0.05721398470363248, 0.11308849315914511, 0.0909954694677344, -0.1418071102031067, -0.00043173060276588193, 0.03962347098554375, -0.0645815661902899, -0.04089174067597934, 0.018658794440172603, -0.13677696593738675, -0.0607451003629646, -0.13429806756977258, -0.04813123228822506, 0.13371145671505244, 0.10775566218653271, -0.1579657439131356, 0.09641396622426195, 0.07025530033693513, 0.16761148207962276, 0.15589779313725494, -0.07180637858694902, -0.15656149500995917, 0.16624122377687067, -0.1234195136088011, -0.10176888375143238, 0.10206181327424914, 0.23114017878996374, -0.06637857568740566, 0.1507687123072278, 0.07695545176797361, -0.019832640899461566, 0.023718864485097167, 0.0034792867285320106, -0.07782428246230673, 0.05133122996154459, -0.05244332086016383, -0.08405692033892154, -0.005493975301203487, 0.07909206828048945, 0.03287764824221884, 0.169013079550638, 0.012773517294974607, -0.08715725188202542, -0.10006604776347196, -0.10197810475091984, -0.15986954517747243, 0.050811411357051445, 0.09638799921654029, 0.11704961419752734, 0.027110728204321484, 0.09397330290147406, 0.12099398916010956, -0.013113509310566452, 0.032523984915982386, -0.10157899501720144, 0.043485804409729475, -0.1047952757466939, -0.03267556366649531, -0.04274850621444467, -0.01559485909369606, -0.05513117389591768, -0.12610389484474094, -0.0690396439371812, -0.061436307891194364, 0.02127441309178823, 0.042298934242752266, 0.056971700477041066, -0.1893392142115279, -0.019476557298472977, -0.10772968697934161, -0.15242879586613872, -0.048726822601034496, -0.13505778346179853, -0.007293560726717096, 0.15558262758337588, 0.06528766337177733, 0.08316240913641805, 0.17522606741959323, 0.035793173295397024, 0.02982214274542912, 0.008596998066618284], [0.14227907760787667, -0.061387911747213524, 0.07566695766149521, 0.006396159870874795, -0.035028379664846766, -0.12898411794613282, -0.0803145027809655, 0.12109601673020857, -0.022480611352605012, -0.03822632123912239, 0.005284436515434504, 0.07897532233817504, -0.14550325816308982, -0.038391315990639455, -0.05191416858536316, 0.020558072321923387, 0.005403034483044708, -0.04543664185355128, 0.06517733796377134, -0.1503158483222007, -0.0926999019767131, -0.010392872615778875, 0.1043643885446231, -0.11710303904960102, -0.057290434671195316, 0.1407359525711071, -0.06903255513682363, -0.05723956487045764, 0.054515020503345606, -0.09730646796454223, -0.07278906941724501, -0.05056030554075716, 0.10731134191175759, 0.06658270360812732, -0.1280260480937646, -0.10720352668885505, 0.10832162627093596, 0.02467353738322931, -0.02808402460420897, 0.09246197619741969, -0.11886399431202714, -0.19471191819476777, 0.18523930840094596, 0.09910700827425709, 0.05862933121050992, -0.12107131203759264, -0.014700454667331725, 0.09509547697361798, 0.14920454951160136, -0.19426918451047875, 0.10160669340479561, -0.19285422764362106, 0.15097141175094123, -0.026760936951231103, 0.118037096917056, -0.04126850277371855, -0.11067026392993856, -0.0841308434713376, 0.06642793619251766, -0.11518953195324373, 0.13125004788963737, 0.0017203395685041378, 0.14799890086505316, 0.15315361024495058, -0.11432184820139366, 0.16995770883185546, -0.13295426250645312, -0.11921403140779975, 0.1584490270357225, 0.15690800604226998, -0.11624780860126045, -0.007481937588009252, 0.005959447804834481, 0.08306054646760738, 0.002882011273888523, 0.12747980693938618, -0.03908865087136031, 0.03710606165385538, 0.0768443923722995, 0.06114374305744447, -0.19243413582139682, -0.1625335886332525, -0.03192816544853785, -0.14781211510535344, -0.01976260757319891, -0.06693062679226806, 0.13343840864376078, 0.023436226802973786, 0.07701007384354816, 0.1204798119084774, 0.029697410984693758, -0.17866342304903887, -0.05855213533164071, 0.1316323335259389, 0.06363082073723765, -0.05347384693394608, -0.08494065671140028, 0.15237197952042372, -0.007237515323255828, 0.02317075587774077, -0.08610669275934965, -0.13402962557430703, -0.028671046892495323, 0.15180894081221974, 0.0791117903995286, -0.08965270995747995, 0.08924727428624105, 0.0455315158299323, -0.05861709239961812, -0.019470420495273384, 0.028986280176964526, -0.09317576234768506, 0.12714503852459078, -0.039182105365227114, 0.1942689727817803, -0.15109660281793308, -0.02192693363486143, -0.14866305050688094, -0.1575918162765751, -0.08599812401121945, -0.03996605776529104, -0.024333966348101293, 0.12026073258576202, 0.0620629464040082, -0.03026529572070286, 0.1527098420950498, 0.07973710799173363, -0.04623243701024577], [0.0576087656668271, -0.02508315877700199, 0.14051703416537542, 0.10268220278911618, -0.03163094857991826, -0.011824926861875496, -0.1391360896847616, 0.02104135457707646, 0.15003497309659905, 0.0863129936819232, -0.08976265021012134, -0.13383357330275386, 0.1117026356752449, -0.0896101338257488, -0.0819451114595088, -0.03919437510166637, 0.02415000868232083, 0.13927520259834048, 0.09139076018600965, -0.06671757863527258, 0.00738032616678888, -0.0008002555240917822, -0.1605736522607921, -0.1026258054873268, 0.14099754902696007, -0.13412941821614513, -0.18207368345713962, 0.0019946897469947144, 0.08325125559395827, -0.10125195846586077, -0.02787253482442262, -0.02086878460356777, 0.16412460028188583, -0.08234787493130519, 0.03271584877903816, 0.20600397755740033, 0.11236044757415395, -0.043928324178255256, 0.0984349436554603, 0.14933662289937477, -0.056402690443268476, 0.0966512112663653, -0.11364789895949966, 0.08424382358003424, -0.09711251734777226, -0.03474957444009586, 0.06903224262969665, -0.14698028951746092, 0.028854027362949404, 0.08181493534140183, 0.04424840403248736, -0.0631122186813447, 0.0449192144083441, 0.12294336235311833, 0.08194641383003477, 0.05801562614642272, -0.015680317488263693, 0.041586612243221674, -0.11826030355124713, 0.02208438411341237, 0.1382315591922764, 0.04394132282145988, 0.14028687307806273, -0.10665487563091498, -0.12366984257819008, 0.02467647466120687, -0.11647374978752928, 0.05400861987642026, -0.03525152863984398, 0.022888028413258158, 0.06751796522860581, 0.07808355850770657, -0.035609437995626755, 0.14745881833614335, 0.0002777167159069113, -0.057755129146998596, -0.08241087574969218, 0.0586673900230987, 0.005432303398118487, 0.05041243132927165, -0.13053045633429822, -0.10429469393357296, 0.11995221573444433, 0.05322516525186608, 0.06454746701458322, -0.1840771031661549, -0.1369559148242373, -0.10715602468166012, -0.02482072896944645, 0.10415637617919614, 0.001005409528456453, -0.06570881485941177, 0.043104463893654466, 0.1183473393161075, 0.005809788535894651, 0.08095908750214725, -0.16434181259516578, -0.12284759490451494, 0.01626899141045217, 0.08337501027676582, 0.1510120391785191, -0.04643807163703216, -0.009590124053192416, -0.047320511155278855, 0.06133182494771748, 0.02753526101997779, 0.06086634788282154, -0.0703124377907704, 0.10822567563596394, -0.07393463732561428, -0.07907036682551931, 0.09642225971246293, -0.07837186601398605, 0.05119682310451553, -0.10325346787837755, -0.14609517616151285, -0.07604289494602912, 0.21445702074996364, -0.01255309777960404, -0.07236859261324571, -0.054868492108785916, -0.1931161283732345, 0.1260760717025865, -0.1207321169453305, 0.06716383381177607, -0.08585896875036791, 0.02897036825410692, -0.07834360277018437], [-0.13765623781055245, -0.02046476824370463, 0.1496210531068786, 0.007420995203898918, -0.046256043055883746, -0.06708827467100552, -0.05689038892383948, 0.12584789964070817, 0.09025949258804809, 0.10658787591792382, 0.029993205198625944, 0.07890634648285152, -0.03924901491180278, -0.04677656493622345, -0.029792028999754912, -0.14340254708500116, 0.14736547950110057, -0.09320353139843655, -0.0770102816036002, -0.11335952929954356, 0.08657982055564406, 0.06848242168841985, -0.04061189803052321, -0.20430500307504437, 0.13733801424508044, -0.10912598988888782, 0.12546284345586178, 0.13465329826448216, 0.1294493421064212, 0.13070468682066627, -0.031898764112741, -0.06740212778068841, 0.005388230087593735, -0.0854136830901893, 0.11605989079330942, 0.11052367908016263, -0.006452754413937082, -0.09265279922689075, -0.1407049860209405, -0.005263809372186315, -0.04857690693599563, -0.06488339672807703, -0.002808360274490556, 0.03647856336147105, 0.12622443062523714, -0.026730104645571847, 0.11590911674710706, -0.08555746082805617, 0.0924291431046929, 0.13211920164060886, -0.02022968444456987, -0.10514067217794365, 0.07955681399826922, -0.020201049659320354, 0.17510323371946726, 0.010295397890232108, 0.09992173590569493, -0.06277989462876296, -0.11660584860671597, 0.048555320431683084, 0.034097456636701634, 0.10292923487068939, -0.03572805429552231, 0.042475636114786094, -0.002452151810307312, -0.15117624090962714, 0.06038982418435125, 0.10094845039637902, -0.1529022127898157, -0.005374374369286938, -0.036828526795052864, -0.04118534301873345, -0.0342803490454567, -0.15960499912470458, -0.13275762254274065, -0.14107689403894288, -0.10896905730164122, 0.1688704381471786, -0.1839431297668546, -0.026172688303263306, 0.0654921299229207, -0.17101049579913702, -0.08620236156388553, 0.06929671132254826, 0.04983949445959832, 0.05824298262360144, -0.08797864377878141, 0.054475216451293745, -0.10735676164998292, -0.13405642668830478, 0.08855384175905791, -0.03665368631399817, -0.09894688376210184, -0.022441444658324115, -0.09987213179651545, -0.0273149936310273, 0.025829718014861097, -0.08493402717546836, -0.049829676233862995, 0.08052215074642008, 0.11162459204616056, 0.03105003300482438, -0.09750574639270985, 0.02101159576490793, 0.06749041899868437, -0.06823408056895063, 0.10944514583059552, 0.059483598409339505, 0.004131803422252087, -0.0864684642713321, 0.04609664581731699, 0.22539599028949917, -0.09497703473476936, 0.16781210656644335, 0.14392550746051244, -0.0696665393504662, 0.09140279513754737, 0.04028522530024075, -0.15891831254969926, 0.1507053839555757, -0.003215354391307969, 0.05466183423040782, -0.15406722827211575, -0.048534266123464426, 0.11436153150914556, -0.06221836625766844, -0.1630988260006417, -0.10129473949376568], [-0.004176975633127973, 0.054943595671452704, 0.01943595727603226, -0.09264336338026996, -0.1391236101637726, 0.01889112848246725, 0.009908819907768037, -0.11466243641244009, 0.031097659707644196, -0.12234155087467806, -0.015380261517820048, -0.07925814965663444, -0.14940296102901027, 0.12949051236336914, 0.13092727012472657, -0.006219935159511462, -0.04920213773401618, 0.13040871143119506, 0.1073094730955584, 0.0613370172902198, 0.005965039712037055, -0.05080900998398904, 0.04731616230479017, 0.018654381389330194, 0.011573468451095303, -0.010246133490121606, 0.09502743318481296, -0.10014038991896024, -0.029426085174495395, -0.08855010479904006, -0.039816218440791314, -0.09905706178571644, 0.025896571715801054, -0.1434845881652858, 0.14148450940428203, -0.01006877438340419, -0.16487702183074116, 0.07908729313870266, -0.03649909577485726, -0.08376418772763113, 0.1348734959371087, -0.1400769793914754, -0.17403673931960664, -0.10605948493899355, 0.07988013084232475, 0.028137837433035762, -0.16985369039940104, -0.023242182279627925, 0.10435416996949354, -0.09939011804231072, 0.04593502886953359, -0.10062993848243344, -0.03482874483941341, 0.12460705558793392, -0.10030292866027793, 0.04697203122189066, -0.0004401035136079738, -0.1665785881413086, -0.024502879320664594, 0.12660890292153634, 0.15275288343452406, 0.1255110394577669, -0.10870304715761006, -0.034100600548371995, 0.1034644908079022, 0.027428576372269326, 0.08148212982710944, 0.1216404432915911, -0.10976374375685417, -0.06371832252414594, 0.039891753899015496, 0.21033824311649685, 0.10660233771470032, -0.04503370413617429, -0.15135886260398476, -0.024105302899919807, -0.023603236885762584, 0.1550483542885762, -0.11512966689745652, -0.0375293539663362, 0.052730622425320804, -0.029910013590745042, -0.08691157876952946, -0.10249810374618545, -0.011530148678517281, 0.07918405917888138, 0.10232219866557607, 0.15223156231672014, 0.049137649796517135, 0.0331877529332687, -0.15194218583900163, 0.10984970865280726, 0.05465518832321313, 0.1386367965721141, -0.04149739940361125, 0.12817248606899653, -0.1516670350825104, -0.1052773359054627, -0.05103531367817074, -0.14723853378451454, -0.11833626730579855, 0.016927055894153404, -0.064403480141536, 0.016156262549881013, 0.12171028999459613, 0.1280839698348629, -0.08100417331835559, -0.10809281276357621, 0.14235152677805588, 0.11772559708964635, -0.10243602125600515, -0.010175198941405903, -0.13915446850654253, 0.042417826628691375, -0.03801595999974603, 0.09774511016361327, -0.0012027453427245944, -0.031894623210890455, -0.0611680439871113, 0.0729917690989907, 0.03781578458543737, 0.005197529631223331, 0.06282894046284453, 0.022091664624965618, 0.06838667482653189, 0.01999321893977382, 0.05624584890943758, 0.16508597804432568], [-0.04125353919396151, -0.020432542973026765, -0.01965669282214251, -0.10913533529835855, -0.0548208741528095, -0.1442646586013559, -0.05186758843576044, -0.07023680602922444, -0.10700454288520604, -0.11281925505557189, -0.10201929117355094, -0.06807834258067563, -0.005993621534715517, -0.1179195363827453, 0.06452685914983601, -0.07320804003828305, -0.13048964257849383, 0.04460540305493976, -0.07885470717514245, -0.13102240165864473, -0.13249124871684193, 0.003036934845254164, 0.06639739273406764, 0.04334859668621499, -0.14521326776539123, 0.0674674394713551, -0.018340221650623028, 0.13042490840833282, -0.12664865153909566, -0.04051407525659419, -0.19167130238855892, 0.13487566305981855, -0.07926134950481774, 0.025491946900165117, -0.02305433609016026, -0.11665883384822501, 0.14562943641200174, 0.05906271908188361, 0.14026502914904534, -0.10934563740043175, 0.12501719590310761, 0.12788357946440673, -0.009848644389800602, 0.13554237403322686, -0.05551492094177447, -0.09078399694797377, 0.11966910370826295, 0.142040224116483, -0.08349006550343907, 0.1265195385262678, -0.044369890019333925, 0.1520884306836645, 0.12117338532444852, 0.1092024108066078, -0.02958429612599298, -0.040952431944793095, -0.02942983394632821, -0.0025797803686066173, 0.017002823870654396, 0.07293960194101165, -0.1016927249830894, 0.013536606024352542, -0.023702162771837385, -0.11818944009014959, -0.005722229141715244, -0.023311604828305826, 0.02374461989243855, -0.07322728421004882, 0.09676461767853399, -0.04485697788140933, 0.05082495545114352, -0.07101179816215286, 0.022226438636625923, -0.06956266961321499, 0.1470345794143419, 0.015238097741336918, 0.04842070672725907, -0.05307019764227265, 0.13114513889948964, 0.09150168754722908, -0.1024618117314068, 0.13242555330506062, -0.14629079795352568, 0.12727693402029724, 0.001338909050669846, 0.08979600697546883, 0.011241572072411941, -0.17981690361421993, -0.09684715496266678, 0.15915805918289136, -0.07552922369895822, -0.16955114431494706, 0.07105472408325172, -0.15389194974401996, -0.12543463390271226, -0.020187425795991993, -0.1805514102777957, 0.19551453280136116, 0.03328271010418258, -0.02211623320506043, 0.12211800097036604, 0.09555624836000745, -0.14167673478513257, -0.07341090500169131, 0.09016942494448997, -0.05965335785995251, 0.021944315421713195, -0.012506372372379575, -0.12494127730732144, 0.05264866867927749, -0.03461159995881092, 0.06591950117431848, -0.09351800077526892, 0.0041134380111187635, -0.04892161524101755, -0.02414276039006089, 0.07201400063335882, 0.13105252410538235, 0.02946330700452429, -0.007561839217320825, -0.0423571117791082, -0.08919627579723315, -0.053969670085161146, -0.11881999331478205, -0.025593348177473104, 0.06928445663779537, 0.21627594460346508, -0.027506667462323116], [0.008913093350193723, -0.11664339707580798, 0.1076776957902301, 0.15760647401116165, 0.09917930708073129, -0.15299026813809946, -0.016937748454244114, -0.08755639151414844, -0.180009085136934, 0.10393672861060049, -0.057734461566200074, -0.025431377427205505, 0.016780755553428235, -0.14287549365413596, -0.01418948414386303, -0.13615746019016925, -0.18773932751428707, 0.10183858774738555, -0.03821011773530324, 0.11585715070410817, -0.004696855900466733, -0.025346046132155315, -0.0814311292849445, -0.1643036831450027, -0.11970406178640784, 0.05535115341426842, 0.11954652033726443, 0.05404512077620854, 0.07887041781290047, -0.09811015709044799, 0.04125519657303297, 0.13744497151882115, -0.09856165618182056, -0.08137457063511805, 0.10209470799107576, 0.10471691608718423, -0.09687060804498968, -0.05569383743584077, 0.06642757089168909, -0.012057171529867652, 0.046630790400019696, -0.031343329773538625, 0.06313912692490556, 0.17490824293330512, 0.1368420112204215, 0.005148637123716062, 0.07076311364989248, 0.036076373642597775, -0.1813006106357418, -0.10914088628994728, -0.1472989466238415, -0.03113079422949683, 0.11646899832190456, 0.0619895386605702, 0.061826997210845856, -0.1303276358954388, -0.0715869554164123, -0.0853419149135894, 0.15739232289854763, -0.08174976772505625, 0.05834704879024528, -0.10545530747752263, -0.13464994352550833, -0.011165152783696196, -0.0665570737332858, -0.05085210734280055, 0.02704200541662433, -0.03603607636130894, 0.1370630234964684, -0.10748173988076244, -0.07265183626594435, 0.08514043622732538, 0.06293594012183368, -0.08702293209297805, -0.042711636487973714, -0.0546470547653901, 0.00508814751102449, -0.15923818572131412, 0.07205920448759631, -0.011939821203485768, -0.07630351990190082, 0.10865156382804833, -0.08826698705476284, -0.09642916935499815, -0.15443753327969567, 0.12764182660342716, 0.011331071064881642, -0.00507565352111957, -0.07752911153955966, -0.11163502079438714, -0.06541134791470544, 0.0476310701370604, 0.05951080774134309, 0.04337391197692178, 0.11403962850658819, -0.05863528913910934, -0.13118667490101793, -0.004809504364300171, -0.1643334280074094, -0.04257579295567275, 0.1979248112977228, 0.14347241332794253, -0.015157551086806118, -0.05544313947418163, -0.04349316824617814, 0.08816309696630845, -0.15334878260011206, -0.12564060410040206, -0.13789501336814625, 0.011284074306740544, -0.04079501837439437, 0.08957504623243442, -0.10420063284960103, -0.0013577682574957201, 0.06320354954525863, -0.02423024378570633, -0.05736821710633368, -0.05363917536054544, 0.03369957999532897, -0.1606515313658708, 0.10640900704372926, -0.039162481759374264, -0.13316807171836342, 0.05767178524618209, -0.10109097146179208, 0.06344961017660339, 0.017681934813058516, -0.09944324044125091], [-0.15006928618094717, 0.16703678964335913, -0.10341310057248429, 0.12083306101767952, -0.0006900870396708263, 0.046351907134526395, -0.15193946164720434, 0.14267137641039673, 0.12361055582868231, 0.036873303518698344, -0.15265461336807506, -0.07747557949069889, 0.01213541558129815, -0.03441029025943556, 0.009709986376195977, -0.13915393143042293, -0.18822714901457685, 0.014031707484030296, -0.14980116881238145, -0.1488559423091003, -0.02085413157760698, -0.11320827498725036, -0.042086201323816984, -0.09383552082083625, -0.04506349364411626, -0.06088861757766953, -0.11036305178847239, -0.05741562461577695, 0.04353210114891545, 0.0978753149982231, 0.12444854126117025, -0.04610734641204666, -0.05599577796355709, -0.00020674531270096388, -0.08141509545131326, -0.04335453098702397, -0.18158881925338705, -0.03857709764963396, -0.16188450858345702, -0.01747107530686994, 0.0457725815345486, 0.11273242055020005, -0.08570197824567115, -0.1254059862994271, 0.15459569564501774, 0.1098936351488938, 0.033625663215055876, 0.1148325133012691, -0.08722511647282842, 0.1371763618991662, 0.1307999307226346, -0.13537465307255842, -0.005638581864114296, 0.10326551563864052, 0.016307132111123827, 0.07124156782436995, 0.08400419278369277, -0.09567407226427364, 0.1519800532839478, -0.016890767092531, -0.05773364296689404, 0.09837613652994853, 0.08333340782714914, -0.04683021193931609, -0.09825190240268901, -0.055614053643746185, -0.13254667337722081, 0.06605244001947175, -0.009364527464585876, -0.03878660277156798, -0.15458813577245978, -0.11669147332383689, 0.08230095315511876, -0.12244369383106699, -0.0881868022807703, -0.12287992524016797, -0.1065094039512237, 0.1571268516881984, -0.07828689299710284, 0.13216044684453737, -0.12138987765854403, -0.06233828203753981, 0.13516679713550125, -0.007801886058496501, -0.038316084802982736, 0.051865271512859, -0.14635256623128845, 0.15729865860019862, 0.11677908251476415, -0.18588505964101765, 0.09555850891483372, 0.1473146258150482, -0.0031497823407800243, 0.03445776028165559, 0.09747693552118772, -0.04270579879273664, 0.09953743729122466, -0.02084830717617367, -0.04052483661211896, 0.12422350055768352, 0.10463214621563081, 0.19422869952907945, 0.08643109649609468, -0.12545262076446265, 0.028605213967156602, 0.07294626087596257, 0.09440900511314658, -0.05577913045215429, -0.0005792821155701727, -0.1695693042160587, -0.18486963922432717, 0.00806781410158142, 0.0072159366053023, -0.09392363659150248, 0.051155249326364755, -0.023880423768409008, -0.14381179185241472, -0.15676612515931215, 0.03579985647613582, 0.16086825401892613, 0.056544156938107236, -0.10544952463075365, 0.060192855619570364, -0.031456147426909095, -0.17099983725815276, -0.006240930185176542, -0.03205702751484687, -0.0100136505992373], [-0.035315131257580366, 0.07655626811456072, -0.05323601292072657, -0.15027341466321842, -0.10229877347696026, 0.02557116504815666, 0.06716357895197787, -0.17060782000712196, -0.02026930038611995, -0.11822124631622993, 0.05626509152677462, 0.12385894489192113, -0.082889755329984, -0.029742219290330302, 0.11014905525782111, -0.0842905549560576, -0.15298464156984395, 0.10887891577771454, 0.06325129872061291, 0.04807900274136452, 0.12244847888739795, 0.010240969241546327, 0.020848622286933377, -0.0064756713775469595, 0.02784647189115091, 0.0007246358776660238, -0.10496261848543674, -0.07338603360467925, 0.13153463106413016, -0.13381318670733122, 0.06699906599117557, 0.15769885913423093, -0.13337396676552038, 0.08285657671619527, -0.04576887412764083, -0.10216121523458405, 0.11898906632185594, 0.15411612099662428, -0.04936308755387795, 0.059106909061240526, -0.11368024681807773, 0.08009038706734051, 0.12621208356096877, -0.01728442948488325, 0.05724760867185611, 0.1012064714895674, -0.12352365328165567, 0.16294643611316514, 0.001080623168286766, -0.0744768174044068, 0.023368754488468993, 0.1005323456142651, 0.08417823173147385, 0.03662035916352931, 0.016359040022212053, 0.14065673859530903, -0.07595236343600947, -0.08170016441567807, 0.08693434195724016, 0.06432999871240079, 0.07467917913478242, -0.04563999271857233, -0.07401960641704153, 0.0877290812481647, -0.08203564466040389, 0.021183975676620566, -0.06287321696114845, 0.054163000537204256, -0.0797535295465783, -0.037629721394408275, 0.06379864963514818, -0.03865701734934113, -0.05113562716070866, 0.22285080953163247, -0.05948791950981393, -0.1009262090623422, 0.026687933490243246, -0.12345941737064106, 0.060918376226668264, 0.030231883487504493, 0.16022259279683201, -0.04378065241755502, -0.04505506747942922, 0.17268642335959117, 0.1443401411088587, 0.0009002007113205599, 0.09795007433743376, -0.03359919646346361, -0.010792961350496226, -0.12079651391004533, 0.0024236627218036945, -0.006577615224991437, 0.036654229327719424, -0.0037200373450892083, 0.13271956607710247, 0.08270141961872275, -0.05723874511899138, 0.05904738570538828, 0.060241584850220936, 0.061570622386241614, -0.11873197230162344, 0.02828348630126393, 0.06512911617900233, -0.07031182598698421, 0.023443453763580063, -0.08108220939152526, -0.08719453635505131, 0.10742510345796334, -0.09163198704570565, 0.09824600716649451, 0.2045123252938176, -0.08807853268562876, 0.10099737742142113, -0.09313802839559286, 0.10155241920194805, 0.10578187252648144, 0.0635179858621377, -0.04542853967630486, -0.08106404752084398, 0.10451636377813889, -0.11989128231139265, -0.05403423101350712, -0.02645418807132697, -0.048928095364156175, 0.14658540965968075, 0.11901692373546359, 0.08746717259011362, 0.16526736122875238], [-0.08907730015241179, -0.0024989458009317504, 0.04866983727232371, 0.025312188921367672, 0.09923026420225117, -0.011792359134023517, 0.11699842684396829, -0.12049926017742443, -0.045307072005044385, 0.00942068400938707, 0.04694778977869003, -0.03997705721639504, 0.1650263274177463, -0.016752865102453943, -0.1670321291781104, 0.14467510149937388, 0.14243247463550276, -0.02770074191734075, 0.0012359148256847398, 0.047301462619121236, 0.13901204027446376, -0.0844107948560883, 0.08878670730862974, 0.09428220887005966, -0.0971287956408125, 0.022523547087877707, -0.124902594419165, -0.032524917006816055, 0.08261370711110597, 0.021344172465823298, 0.103306169363391, -0.06353058494338057, 0.1420360977276012, -0.053540747715668885, 0.10281976968285801, 0.12875562288471432, 0.05636589917132462, 0.09348449036239774, 0.005534674006196362, 0.05212768891272657, 0.13485863029436002, 0.0733279411043425, -0.04444285441116378, 0.10973653055493691, -0.15252844337338028, 0.01892254431568829, -0.02122943029666609, -0.10406231741023592, -0.00506668874348678, -0.1648553613521772, 0.008135512290405081, 0.07655868999278997, -0.14575701207860284, -0.11853129746041022, -0.0059015663675557085, -0.03849554394893705, 0.02567269330845038, -0.07240546498122864, -0.015588092004111773, -0.06802898353172607, -0.11692389354150332, -0.10155430892666059, -0.11203984359911497, -0.019125272796972296, 0.0910142241206493, -0.1033135337502387, 0.079309001474485, -0.018431403727660618, 0.1493829829588941, -0.016622456467550017, 0.04263010030940081, 0.006958318404199615, 0.01389351407034815, 0.0812229156413764, 0.1448810448388564, -0.07972257725588514, 0.04898123834395922, -0.10145117696540117, -0.1698741017517857, 0.058456112549372566, 0.1651006753610676, 0.046851436033028576, -0.17239955696824508, -0.15359646715168757, -0.02394162089262297, -0.08212758880891757, -0.173636268968366, 0.12686656427901094, -0.030480109762387804, 0.1176500010917442, 0.13388746341262664, -0.01164879969734928, 0.028798153644010404, -0.06431264029111565, -0.093982581101094, -0.10195604985858216, 0.03889378382051881, -0.19642431155164233, -0.006102905035910075, -0.09720165168831683, 0.08128837081185572, -0.013650569075742868, 0.10224349740405107, -0.0952937460256979, 0.14858540629969497, 0.011626751019065061, -0.1008873398527443, 0.007490819282333039, -0.06930324171595142, 0.08155100340190913, 0.013382238217251558, -0.15807677512104507, -0.0455424434625466, 0.1305685227270685, 0.04211522669353879, 0.05088990418522538, -0.11993214402695469, 0.12134491780927271, 0.0055708710355056425, 0.1655805201235936, 0.0017628132055281685, 0.1084063686871391, 0.11358674360441089, 0.07322114026229254, 0.016384879714048808, -0.08640379518597777, -0.11979037553004744, 0.0025766191550109373], [-0.0439696980108886, 0.11011108163482974, -0.12441013472560337, 0.0868770066555141, -0.13702235534036555, 0.07478853158348815, 0.016580314309812987, -0.06884749871701312, -0.0680951816466088, -0.16361161551476963, 0.03481395303585296, -0.05275099041517139, 0.017834428462892293, 0.13049421348728055, -0.07099031191838957, 0.09492857850691146, -0.0038549613695562594, -0.15130349501497192, -0.0038632791934589657, -0.05189252458078408, -0.13120316428311066, 0.01582278581190762, -0.09518942582331422, 0.026428649813582488, -0.011919766583388704, -0.0016502781084696723, 0.10473488002123182, 0.12467974038858079, 0.10983327278767505, -0.0010366724550693173, -0.014768293455489016, -0.19346826752404586, -0.11631022776531025, -0.011344071007553802, -0.05473155028614456, 0.022685251092313903, 0.044319404366872255, -0.008757579145459281, 0.12590708908200923, 0.11154496415167237, 0.034986175193271324, 0.004606816319159168, -0.13194361415804107, -0.026761536955368072, 0.012355668286728912, 0.021355500817300845, -0.13405277986878408, 0.01669171077010862, -0.0818328049700993, -0.10447847781493018, -0.04856027427947092, 0.16395526760837403, -0.1423594674042664, -0.15664564822313043, 0.02829951801618541, 0.011776167475170634, -0.14735410721597308, -0.17220339642844334, 0.1349555880602746, 0.07689232525766397, -0.144384082851497, -0.10893788299084534, 0.03304832471485684, -0.06299326287489886, -0.13386895729062212, 0.05223724975922092, -0.1807057292352471, -0.10895891577528305, -0.08050690747194748, -0.09092584095742558, 0.09422410260905564, -0.13108052337373136, -0.08977795455868225, -0.059487609335784376, -0.09285270001095104, 0.08286658276576744, -0.00199143514542549, 0.08300240515278157, -0.09526883285326172, 0.1836427112094444, -0.08363051854336186, 0.08307643273891778, -0.042168182099909836, 0.02040326859370076, -0.1517135319573623, 